{"learner":{"attributes":{"scikit_learn":"{\"_estimator_type\": \"classifier\"}"},"feature_names":["distance","rate","rating","total_reviews","is_verified"],"feature_types":["float","float","float","int","int"],"gradient_booster":{"model":{"cats":{"enc":[],"feature_segments":[],"sorted_idx":[]},"gbtree_model_param":{"num_parallel_tree":"1","num_trees":"100"},"iteration_indptr":[0,1,2,3,4,5,6,7,8,9,10,11,12,13,14,15,16,17,18,19,20,21,22,23,24,25,26,27,28,29,30,31,32,33,34,35,36,37,38,39,40,41,42,43,44,45,46,47,48,49,50,51,52,53,54,55,56,57,58,59,60,61,62,63,64,65,66,67,68,69,70,71,72,73,74,75,76,77,78,79,80,81,82,83,84,85,86,87,88,89,90,91,92,93,94,95,96,97,98,99,100],"tree_info":[0,0,0,0,0,0,0,0,0,0,0,0,0,0,0,0,0,0,0,0,0,0,0,0,0,0,0,0,0,0,0,0,0,0,0,0,0,0,0,0,0,0,0,0,0,0,0,0,0,0,0,0,0,0,0,0,0,0,0,0,0,0,0,0,0,0,0,0,0,0,0,0,0,0,0,0,0,0,0,0,0,0,0,0,0,0,0,0,0,0,0,0,0,0,0,0,0,0,0,0],"trees":[{"base_weights":[7.505701E-8,8.951654E-1,-1.046285E0,1.1807191E0,3.0150422E-1,-5.405797E-1,-1.6801996E0,1.3373157E0,6.716979E-1,6.7898303E-1,-4.1690183E-1,1.5411553E-1,-1.1971207E0,-1.1489881E0,-1.9403851E0,1.4435439E0,1.0813755E0,9.925648E-1,2.2998138E-1,4.2405015E-1,1.1357483E0,-7.458346E-1,3.0297294E-1,-2.763484E-1,6.3569355E-1,-1.7477266E0,-7.1290445E-1,-1.4493446E0,-4.4141704E-1,-1.9856918E0,-1.303567E0,1.0800029E-1,1.4808302E-1,1.329205E-1,8.440732E-2,1.2816799E-2,1.1703874E-1,-3.975036E-2,5.9840944E-2,6.398045E-2,-2.596411E-2,1.7817857E-2,1.1674062E-1,6.852302E-2,-8.24652E-2,-7.6780915E-2,6.877636E-2,-7.4649625E-2,1.4986813E-2,8.980492E-2,2.181719E-2,-1.283782E-1,-2.0834723E-1,-3.721354E-2,-1.515222E-1,4.2603865E-2,-1.5394332E-1,-8.0413125E-2,3.054463E-2,-1.8465684E-1,-2.2397433E-1,1.3600426E-3,-1.457513E-1],"categories":[],"categories_nodes":[],"categories_segments":[],"categories_sizes":[],"default_left":[0,0,0,0,0,0,0,0,0,0,0,0,0,0,0,0,0,0,0,0,0,0,0,0,0,0,0,0,0,0,0,0,0,0,0,0,0,0,0,0,0,0,0,0,0,0,0,0,0,0,0,0,0,0,0,0,0,0,0,0,0,0,0],"id":0,"left_children":[1,3,5,7,9,11,13,15,17,19,21,23,25,27,29,31,33,35,37,39,41,43,45,47,49,51,53,55,57,59,61,-1,-1,-1,-1,-1,-1,-1,-1,-1,-1,-1,-1,-1,-1,-1,-1,-1,-1,-1,-1,-1,-1,-1,-1,-1,-1,-1,-1,-1,-1,-1,-1],"loss_changes":[9.053682E2,8.795651E1,1.4197363E2,2.7113068E1,4.653016E1,1.1393431E2,2.5041077E1,5.717987E0,1.1774162E1,1.2580734E1,1.4282246E1,2.547985E1,3.296962E1,1.36673355E1,1.1907654E0,9.248352E-1,3.730713E0,7.343395E0,8.776255E0,1.1021388E1,9.920349E-1,5.193329E0,8.491919E0,1.3166868E1,6.147997E0,6.5718994E0,1.8567074E1,8.566307E0,6.069637E0,1.1883545E-1,2.374258E0,0E0,0E0,0E0,0E0,0E0,0E0,0E0,0E0,0E0,0E0,0E0,0E0,0E0,0E0,0E0,0E0,0E0,0E0,0E0,0E0,0E0,0E0,0E0,0E0,0E0,0E0,0E0,0E0,0E0,0E0,0E0,0E0],"parents":[2147483647,0,0,1,1,2,2,3,3,4,4,5,5,6,6,7,7,8,8,9,9,10,10,11,11,12,12,13,13,14,14,15,15,16,16,17,17,18,18,19,19,20,20,21,21,22,22,23,23,24,24,25,25,26,26,27,27,28,28,29,29,30,30],"right_children":[2,4,6,8,10,12,14,16,18,20,22,24,26,28,30,32,34,36,38,40,42,44,46,48,50,52,54,56,58,60,62,-1,-1,-1,-1,-1,-1,-1,-1,-1,-1,-1,-1,-1,-1,-1,-1,-1,-1,-1,-1,-1,-1,-1,-1,-1,-1,-1,-1,-1,-1,-1,-1],"split_conditions":[1.1141071E1,7.4773746E0,1.6073788E1,2.3015796E2,1.9269902E2,1.5042369E2,1.0989082E2,5.2462354E0,4.532949E0,4.418119E0,4.490004E0,4.300935E0,4.156699E0,4.578758E0,1.4E2,1.9E1,1.17550095E2,3.2E1,4.0197425E0,1.4620128E2,2.1264816E1,3.5606582E0,3.5E1,7.5E1,9.299492E1,2.1852396E2,1.4114154E1,1.945834E1,1E2,1.8750776E1,1.41E2,1.0800029E-1,1.4808302E-1,1.329205E-1,8.440732E-2,1.2816799E-2,1.1703874E-1,-3.975036E-2,5.9840944E-2,6.398045E-2,-2.596411E-2,1.7817857E-2,1.1674062E-1,6.852302E-2,-8.24652E-2,-7.6780915E-2,6.877636E-2,-7.4649625E-2,1.4986813E-2,8.980492E-2,2.181719E-2,-1.283782E-1,-2.0834723E-1,-3.721354E-2,-1.515222E-1,4.2603865E-2,-1.5394332E-1,-8.0413125E-2,3.054463E-2,-1.8465684E-1,-2.2397433E-1,1.3600426E-3,-1.457513E-1],"split_indices":[0,0,0,1,1,1,1,0,0,2,2,2,2,2,3,3,1,3,2,1,1,2,3,3,1,1,0,1,3,0,3,0,0,0,0,0,0,0,0,0,0,0,0,0,0,0,0,0,0,0,0,0,0,0,0,0,0,0,0,0,0,0,0],"split_type":[0,0,0,0,0,0,0,0,0,0,0,0,0,0,0,0,0,0,0,0,0,0,0,0,0,0,0,0,0,0,0,0,0,0,0,0,0,0,0,0,0,0,0,0,0,0,0,0,0,0,0,0,0,0,0,0,0,0,0,0,0,0,0],"sum_hessian":[9.64656E2,5.199496E2,4.4470642E2,3.504113E2,1.6953828E2,2.4839893E2,1.963075E2,2.667274E2,8.368391E1,1.11176605E2,5.8361687E1,1.2106433E2,1.27334595E2,6.63201E1,1.299874E2,1.8521396E2,8.1513435E1,4.7750473E1,3.5933437E1,7.259036E1,3.858624E1,4.0033222E1,1.8328465E1,6.414962E1,5.6914703E1,5.8361687E1,6.89729E1,4.582116E1,2.049894E1,1.1937618E2,1.0611216E1,2.0016611E1,1.6519734E2,3.7621582E1,4.389185E1,8.44074E0,3.930973E1,1.326402E1,2.2669416E1,5.5226555E1,1.7363808E1,1.446984E0,3.7139256E1,1.688148E0,3.8345078E1,4.582116E0,1.3746348E1,3.01455E1,3.4004124E1,3.424529E1,2.2669416E1,2.652804E1,3.1833649E1,4.943862E1,1.9534285E1,1.929312E0,4.389185E1,1.3746348E1,6.752592E0,8.247809E1,3.689809E1,1.20582E0,9.4053955E0],"tree_param":{"num_deleted":"0","num_feature":"5","num_nodes":"63","size_leaf_vector":"1"}},{"base_weights":[1.0099103E-3,8.243219E-1,-9.29188E-1,1.0936109E0,2.7477324E-1,-4.8399878E-1,-1.4781926E0,1.2428821E0,6.1565083E-1,7.240285E-1,-2.2892597E-1,1.4000528E-1,-1.0614691E0,-9.671927E-1,-1.6816764E0,1.3448443E0,9.9946886E-1,2.5507984E-1,9.696392E-1,1.4498663E-1,9.426031E-1,-5.488201E-1,4.01495E-1,-2.4829541E-1,5.819215E-1,-1.5514892E0,-6.4732057E-1,-1.2359574E0,-3.2289767E-1,-1.7606248E0,-1.360665E0,1.07805245E-1,1.40222E-1,1.2711722E-1,8.006304E-2,-8.7076254E-2,5.543186E-2,1.3569008E-1,5.4011744E-2,-7.91139E-2,4.0876202E-2,7.928925E-2,1.5011232E-1,7.359507E-2,-6.1010737E-2,-3.2585334E-2,6.516879E-2,-1.03647046E-1,-1.7038597E-3,2.653697E-2,8.883073E-2,-1.8379964E-1,-1.1354591E-1,-2.5252014E-2,-1.12780474E-1,4.0031243E-2,-1.3242449E-1,-6.904182E-2,4.86519E-2,-9.549911E-2,-1.7929368E-1,-1.0756127E-1,-1.8125848E-1],"categories":[],"categories_nodes":[],"categories_segments":[],"categories_sizes":[],"default_left":[0,0,0,0,0,0,0,0,0,0,0,0,0,0,0,0,0,0,0,0,0,0,0,0,0,0,0,0,0,0,0,0,0,0,0,0,0,0,0,0,0,0,0,0,0,0,0,0,0,0,0,0,0,0,0,0,0,0,0,0,0,0,0],"id":1,"left_children":[1,3,5,7,9,11,13,15,17,19,21,23,25,27,29,31,33,35,37,39,41,43,45,47,49,51,53,55,57,59,61,-1,-1,-1,-1,-1,-1,-1,-1,-1,-1,-1,-1,-1,-1,-1,-1,-1,-1,-1,-1,-1,-1,-1,-1,-1,-1,-1,-1,-1,-1,-1,-1],"loss_changes":[7.3759155E2,7.5307434E1,1.0980777E2,2.3674377E1,3.848935E1,9.0666214E1,1.937796E1,5.110016E0,1.0410868E1,1.122324E1,1.6474829E1,2.1013678E1,2.5495712E1,9.970692E0,1.2315369E0,1.2494812E0,3.3402252E0,1.4876236E1,6.216587E0,6.6886992E0,4.2430077E0,4.692402E0,5.25478E0,1.1909584E1,5.3100815E0,4.956955E0,1.34652E1,6.5835495E0,5.982299E0,1.1894226E0,2.2566986E0,0E0,0E0,0E0,0E0,0E0,0E0,0E0,0E0,0E0,0E0,0E0,0E0,0E0,0E0,0E0,0E0,0E0,0E0,0E0,0E0,0E0,0E0,0E0,0E0,0E0,0E0,0E0,0E0,0E0,0E0,0E0,0E0],"parents":[2147483647,0,0,1,1,2,2,3,3,4,4,5,5,6,6,7,7,8,8,9,9,10,10,11,11,12,12,13,13,14,14,15,15,16,16,17,17,18,18,19,19,20,20,21,21,22,22,23,23,24,24,25,25,26,26,27,27,28,28,29,29,30,30],"right_children":[2,4,6,8,10,12,14,16,18,20,22,24,26,28,30,32,34,36,38,40,42,44,46,48,50,52,54,56,58,60,62,-1,-1,-1,-1,-1,-1,-1,-1,-1,-1,-1,-1,-1,-1,-1,-1,-1,-1,-1,-1,-1,-1,-1,-1,-1,-1,-1,-1,-1,-1,-1,-1],"split_conditions":[1.1141071E1,7.4773746E0,1.6073788E1,2.3015796E2,1.5781912E2,1.5042369E2,9.627818E1,5.2462354E0,4.211559E0,3.8986197E0,4.4431176E0,4.300935E0,4.1432815E0,4.609127E0,4.617699E0,1E0,1.0442791E2,1E0,4.216892E0,3.1E1,1.18E2,3.5606582E0,3.5E1,1E0,8.4E1,7.7E1,1.3549771E1,1.945834E1,1E2,1.6186073E1,1.8750776E1,1.07805245E-1,1.40222E-1,1.2711722E-1,8.006304E-2,-8.7076254E-2,5.543186E-2,1.3569008E-1,5.4011744E-2,-7.91139E-2,4.0876202E-2,7.928925E-2,1.5011232E-1,7.359507E-2,-6.1010737E-2,-3.2585334E-2,6.516879E-2,-1.03647046E-1,-1.7038597E-3,2.653697E-2,8.883073E-2,-1.8379964E-1,-1.1354591E-1,-2.5252014E-2,-1.12780474E-1,4.0031243E-2,-1.3242449E-1,-6.904182E-2,4.86519E-2,-9.549911E-2,-1.7929368E-1,-1.0756127E-1,-1.8125848E-1],"split_indices":[0,0,0,1,1,1,1,0,2,2,2,2,2,2,2,4,1,4,0,3,3,2,3,4,3,3,0,1,3,0,0,0,0,0,0,0,0,0,0,0,0,0,0,0,0,0,0,0,0,0,0,0,0,0,0,0,0,0,0,0,0,0,0],"split_type":[0,0,0,0,0,0,0,0,0,0,0,0,0,0,0,0,0,0,0,0,0,0,0,0,0,0,0,0,0,0,0,0,0,0,0,0,0,0,0,0,0,0,0,0,0,0,0,0,0,0,0,0,0,0,0,0,0,0,0,0,0,0,0],"sum_hessian":[9.6111035E2,5.09908E2,4.512024E2,3.4155148E2,1.6835652E2,2.5019788E2,2.0100452E2,2.5904803E2,8.250345E1,8.875631E1,7.960021E1,1.2061789E2,1.2957997E2,5.8884262E1,1.4212025E2,1.7938245E2,7.966559E1,4.1724075E1,4.0779373E1,2.477812E1,6.3978188E1,5.2891136E1,2.6709078E1,6.443693E1,5.6180965E1,5.8095375E1,7.1484604E1,4.0903324E1,1.7980938E1,1.10467636E2,3.165261E1,3.5252083E1,1.4413037E2,3.1385628E1,4.8279957E1,8.360181E0,3.336389E1,2.0309237E1,2.0470135E1,5.0074916E0,1.9770628E1,5.236219E1,1.1615997E1,1.9069672E0,5.098417E1,6.7585487E0,1.995053E1,1.382757E1,5.0609356E1,2.8549896E1,2.763107E1,3.2379E1,2.5716372E1,4.0078655E1,3.1405949E1,1.9130856E0,3.899024E1,1.2467164E1,5.5137734E0,5.437976E0,1.0502966E2,2.148246E1,1.0170152E1],"tree_param":{"num_deleted":"0","num_feature":"5","num_nodes":"63","size_leaf_vector":"1"}},{"base_weights":[1.7162942E-3,7.621332E-1,-8.3382565E-1,1.0177901E0,2.5142643E-1,-2.942868E-1,-1.2071311E0,1.1618786E0,5.653156E-1,5.7835543E-1,-3.490655E-1,2.1647452E-1,-8.7318164E-1,-6.076499E-1,-1.4578738E0,1.2615284E0,9.270167E-1,8.597297E-1,1.7146969E-1,3.5196704E-1,9.94887E-1,-6.081721E-1,2.3913355E-1,-1.5572093E-1,7.3628086E-1,-1.4352334E0,-3.975466E-1,-1.6057707E-2,-9.4539344E-1,-1.3141099E0,-1.6949728E0,1.0039983E-1,1.3174933E-1,6.907616E-2,1.1535988E-1,5.8363467E-3,1.0306429E-1,-3.847311E-2,5.073219E-2,-5.9736013E-2,4.816871E-2,1.16132395E-2,1.0257696E-1,1.2014196E-2,-7.367346E-2,-7.013408E-2,6.037252E-2,-7.7418044E-2,2.1223212E-2,-5.8125774E-3,9.2394665E-2,-1.6397704E-1,-5.769189E-2,-1.244296E-1,-1.3315643E-2,-4.566498E-2,6.575599E-2,-1.5590037E-1,-5.7703923E-2,-1.3353801E-1,-2.6164535E-3,-1.7158674E-1,-5.7645123E-2],"categories":[],"categories_nodes":[],"categories_segments":[],"categories_sizes":[],"default_left":[0,0,0,0,0,0,0,0,0,0,0,0,0,0,0,0,0,0,0,0,0,0,0,0,0,0,0,0,0,0,0,0,0,0,0,0,0,0,0,0,0,0,0,0,0,0,0,0,0,0,0,0,0,0,0,0,0,0,0,0,0,0,0],"id":2,"left_children":[1,3,5,7,9,11,13,15,17,19,21,23,25,27,29,31,33,35,37,39,41,43,45,47,49,51,53,55,57,59,61,-1,-1,-1,-1,-1,-1,-1,-1,-1,-1,-1,-1,-1,-1,-1,-1,-1,-1,-1,-1,-1,-1,-1,-1,-1,-1,-1,-1,-1,-1,-1,-1],"loss_changes":[6.0607385E2,6.4949005E1,9.118744E1,2.1019348E1,3.3169132E1,5.553689E1,3.944574E1,4.7101746E0,9.389864E0,9.938404E0,9.262448E0,1.9509731E1,2.2938965E1,1.613792E1,4.1967773E0,1.1795044E0,3.411232E0,6.352169E0,7.000949E0,9.183272E0,9.0865326E-1,4.0033035E0,6.942051E0,1.3646226E1,6.315819E0,6.0632553E0,1.080756E1,9.3220825E0,1.0728489E1,3.3011322E0,5.9288025E-1,0E0,0E0,0E0,0E0,0E0,0E0,0E0,0E0,0E0,0E0,0E0,0E0,0E0,0E0,0E0,0E0,0E0,0E0,0E0,0E0,0E0,0E0,0E0,0E0,0E0,0E0,0E0,0E0,0E0,0E0,0E0,0E0],"parents":[2147483647,0,0,1,1,2,2,3,3,4,4,5,5,6,6,7,7,8,8,9,9,10,10,11,11,12,12,13,13,14,14,15,15,16,16,17,17,18,18,19,19,20,20,21,21,22,22,23,23,24,24,25,25,26,26,27,27,28,28,29,29,30,30],"right_children":[2,4,6,8,10,12,14,16,18,20,22,24,26,28,30,32,34,36,38,40,42,44,46,48,50,52,54,56,58,60,62,-1,-1,-1,-1,-1,-1,-1,-1,-1,-1,-1,-1,-1,-1,-1,-1,-1,-1,-1,-1,-1,-1,-1,-1,-1,-1,-1,-1,-1,-1,-1,-1],"split_conditions":[1.1141071E1,7.4773746E0,1.4715131E1,2.3015796E2,1.9269902E2,1.656465E2,9.627818E1,5.2462354E0,4.532949E0,4.418119E0,4.490004E0,8.9E1,4.174588E0,1.6560661E1,2.229136E2,1E0,7.4E1,3.2E1,4.0197425E0,1.8E1,2.1264816E1,7.9943695E0,2.1086179E2,3.9982603E0,3.7591844E0,1.13E2,2.9E1,9.2E1,4.031399E0,2.2033017E2,4.9423685E0,1.0039983E-1,1.3174933E-1,6.907616E-2,1.1535988E-1,5.8363467E-3,1.0306429E-1,-3.847311E-2,5.073219E-2,-5.9736013E-2,4.816871E-2,1.16132395E-2,1.0257696E-1,1.2014196E-2,-7.367346E-2,-7.013408E-2,6.037252E-2,-7.7418044E-2,2.1223212E-2,-5.8125774E-3,9.2394665E-2,-1.6397704E-1,-5.769189E-2,-1.244296E-1,-1.3315643E-2,-4.566498E-2,6.575599E-2,-1.5590037E-1,-5.7703923E-2,-1.3353801E-1,-2.6164535E-3,-1.7158674E-1,-5.7645123E-2],"split_indices":[0,0,0,1,1,1,1,0,0,2,2,3,2,0,1,4,3,3,2,3,1,0,1,2,2,3,3,3,2,1,2,0,0,0,0,0,0,0,0,0,0,0,0,0,0,0,0,0,0,0,0,0,0,0,0,0,0,0,0,0,0,0,0],"split_type":[0,0,0,0,0,0,0,0,0,0,0,0,0,0,0,0,0,0,0,0,0,0,0,0,0,0,0,0,0,0,0,0,0,0,0,0,0,0,0,0,0,0,0,0,0,0,0,0,0,0,0,0,0,0,0,0,0,0,0,0,0,0,0],"sum_hessian":[9.5190576E2,4.9840295E2,4.535028E2,3.3147537E2,1.669276E2,1.8619025E2,2.673126E2,2.5022462E2,8.125074E1,1.08107124E2,5.882047E1,9.9248726E1,8.694151E1,7.984374E1,1.8746883E2,1.7261444E2,7.761018E1,4.5817554E1,3.543319E1,7.12352E1,3.687193E1,4.080956E1,1.8010908E1,5.8244503E1,4.1004223E1,3.8925842E1,4.801567E1,2.939789E1,5.0445854E1,1.2077802E2,6.669081E1,3.41961E1,1.3841833E2,3.997609E1,3.7634094E1,8.289901E0,3.7527653E1,1.3285573E1,2.2147615E1,8.130314E0,6.3104885E1,1.4134374E0,3.5458492E1,6.1327367E0,3.4676823E1,4.773611E0,1.3237297E1,2.1314627E1,3.692988E1,7.967468E0,3.3036755E1,3.0699638E1,8.226205E0,1.0543198E1,3.7472473E1,1.7967806E1,1.1430083E1,1.7710716E1,3.2735138E1,1.1877958E2,1.9984462E0,6.494358E1,1.7472273E0],"tree_param":{"num_deleted":"0","num_feature":"5","num_nodes":"63","size_leaf_vector":"1"}},{"base_weights":[2.073966E-3,5.8521616E-1,-9.105206E-1,9.505106E-1,1.1933172E-1,-3.256699E-1,-1.132462E0,1.0907664E0,5.196357E-1,4.7628212E-1,-4.734845E-1,2.8363213E-1,-8.047445E-1,-6.869822E-1,-1.2979184E0,1.1896378E0,8.6149853E-1,1.8449444E-1,8.425883E-1,-2.1248564E-2,6.869989E-1,-7.4128646E-1,2.2512497E-1,-4.646161E-1,5.149461E-1,-1.4958428E0,-5.9006816E-1,-9.877084E-1,-6.803575E-2,-1.1605489E0,-1.5356402E0,8.165752E-2,1.2295886E-1,1.1014787E-1,6.405013E-2,-8.862925E-2,4.7847614E-2,1.2285515E-1,4.491891E-2,-7.9810485E-2,1.975924E-2,3.4851372E-2,9.439384E-2,-9.402848E-2,-6.1591733E-3,-4.9095623E-2,4.6748888E-2,-8.671581E-2,7.8100145E-2,-3.633451E-2,6.913503E-2,-1.6140705E-1,-2.1276115E-2,-7.96461E-2,-1.5687054E-2,-1.2578928E-1,-4.1061696E-2,4.364953E-2,-8.918324E-2,-1.2951007E-1,-7.949113E-2,-8.260297E-2,-1.5758634E-1],"categories":[],"categories_nodes":[],"categories_segments":[],"categories_sizes":[],"default_left":[0,0,0,0,0,0,0,0,0,0,0,0,0,0,0,0,0,0,0,0,0,0,0,0,0,0,0,0,0,0,0,0,0,0,0,0,0,0,0,0,0,0,0,0,0,0,0,0,0,0,0,0,0,0,0,0,0,0,0,0,0,0,0],"id":3,"left_children":[1,3,5,7,9,11,13,15,17,19,21,23,25,27,29,31,33,35,37,39,41,43,45,47,49,51,53,55,57,59,61,-1,-1,-1,-1,-1,-1,-1,-1,-1,-1,-1,-1,-1,-1,-1,-1,-1,-1,-1,-1,-1,-1,-1,-1,-1,-1,-1,-1,-1,-1,-1,-1],"loss_changes":[5.007281E2,9.7586E1,4.7247223E1,1.8870361E1,5.3855934E1,3.0094568E1,1.8679016E1,4.4548645E0,8.600204E0,1.6651478E1,1.8081308E1,8.1622505E0,7.6541405E0,1.3712845E1,4.50354E0,1.4741058E0,3.3497162E0,1.3323841E1,5.6607857E0,8.349294E0,9.36887E0,9.336067E0,4.9677143E0,6.3609467E0,5.742236E0,1.6265182E0,3.947998E0,7.240692E0,1.0897375E1,5.1735535E0,6.2205505E-1,0E0,0E0,0E0,0E0,0E0,0E0,0E0,0E0,0E0,0E0,0E0,0E0,0E0,0E0,0E0,0E0,0E0,0E0,0E0,0E0,0E0,0E0,0E0,0E0,0E0,0E0,0E0,0E0,0E0,0E0,0E0,0E0],"parents":[2147483647,0,0,1,1,2,2,3,3,4,4,5,5,6,6,7,7,8,8,9,9,10,10,11,11,12,12,13,13,14,14,15,15,16,16,17,17,18,18,19,19,20,20,21,21,22,22,23,23,24,24,25,25,26,26,27,27,28,28,29,29,30,30],"right_children":[2,4,6,8,10,12,14,16,18,20,22,24,26,28,30,32,34,36,38,40,42,44,46,48,50,52,54,56,58,60,62,-1,-1,-1,-1,-1,-1,-1,-1,-1,-1,-1,-1,-1,-1,-1,-1,-1,-1,-1,-1,-1,-1,-1,-1,-1,-1,-1,-1,-1,-1,-1,-1],"split_conditions":[1.2810497E1,7.4773746E0,9.299492E1,2.3015796E2,1.9269902E2,1.6073788E1,1.4715131E1,5.2462354E0,4.1969404E0,3.8986197E0,4.5404525E0,1E0,3.8500931E0,9.5E1,2.229136E2,1.9E1,1.17550095E2,1E0,4.0969515E0,3.1E1,6.2E1,1.18E2,3.4E1,4.425326E0,3.8296254E0,1.18E2,1E2,4.505995E0,2.1086179E2,1.1E2,3.6062222E0,8.165752E-2,1.2295886E-1,1.1014787E-1,6.405013E-2,-8.862925E-2,4.7847614E-2,1.2285515E-1,4.491891E-2,-7.9810485E-2,1.975924E-2,3.4851372E-2,9.439384E-2,-9.402848E-2,-6.1591733E-3,-4.9095623E-2,4.6748888E-2,-8.671581E-2,7.8100145E-2,-3.633451E-2,6.913503E-2,-1.6140705E-1,-2.1276115E-2,-7.96461E-2,-1.5687054E-2,-1.2578928E-1,-4.1061696E-2,4.364953E-2,-8.918324E-2,-1.2951007E-1,-7.949113E-2,-8.260297E-2,-1.5758634E-1],"split_indices":[0,0,1,1,1,0,0,0,2,2,2,4,2,3,1,3,1,4,0,3,3,3,3,2,2,3,3,2,1,3,2,0,0,0,0,0,0,0,0,0,0,0,0,0,0,0,0,0,0,0,0,0,0,0,0,0,0,0,0,0,0,0,0],"split_type":[0,0,0,0,0,0,0,0,0,0,0,0,0,0,0,0,0,0,0,0,0,0,0,0,0,0,0,0,0,0,0,0,0,0,0,0,0,0,0,0,0,0,0,0,0,0,0,0,0,0,0,0,0,0,0,0,0,0,0,0,0,0,0],"sum_hessian":[9.3891205E2,5.7307776E2,3.6583432E2,3.2063297E2,2.5244476E2,1.0131656E2,2.6451776E2,2.4073792E2,7.9895065E1,1.5769124E2,9.475352E1,4.4776436E1,5.654012E1,7.303314E1,1.9148462E2,1.652747E2,7.54632E1,3.9978745E1,3.9916317E1,4.718359E1,1.1050765E2,6.845224E1,2.6301277E1,1.0335345E1,3.444109E1,1.1986047E1,4.4554073E1,4.875087E1,2.428227E1,1.25085144E2,6.6399475E1,1.8060905E1,1.472138E2,3.4267796E1,4.119541E1,8.17773E0,3.1801016E1,1.9076998E1,2.0839321E1,9.788557E0,3.7395035E1,4.8703445E1,6.1804207E1,5.265324E1,1.5799001E1,6.3914857E0,1.9909792E1,8.040694E0,2.2946515E0,5.583235E0,2.8857857E1,1.073859E1,1.2474561E0,2.9608725E1,1.494535E1,3.2401386E1,1.6349485E1,1.5350847E1,8.931424E0,8.957882E1,3.550633E1,4.7171087E0,6.1682365E1],"tree_param":{"num_deleted":"0","num_feature":"5","num_nodes":"63","size_leaf_vector":"1"}},{"base_weights":[2.1240974E-3,6.58095E-1,-6.876662E-1,8.8998395E-1,2.1740755E-1,-3.5693014E-1,-1.0947738E0,1.0026224E0,3.8664243E-1,5.903687E-1,-1.6827178E-1,1.1649724E-1,-8.063896E-1,-7.369966E-1,-1.2719511E0,6.835206E-1,1.0787395E0,7.3546034E-1,-3.1082578E-2,1.2233729E-1,7.773303E-1,-4.1021237E-1,3.2967907E-1,-1.5735361E-1,5.66593E-1,-1.1713551E0,-4.8176396E-1,-9.552184E-1,-2.2500134E-1,-1.5069252E0,-1.1407726E0,1.1687421E-1,4.2865936E-2,8.156254E-2,1.1539538E-1,3.7133172E-2,1.2553324E-1,-9.813164E-2,2.146349E-2,-6.3407294E-2,3.4868833E-2,6.3042745E-2,1.3356207E-1,-9.9939324E-2,-2.6544577E-2,-3.0574653E-2,5.5298246E-2,-8.979689E-2,6.59128E-3,3.6166582E-2,9.10233E-2,-7.7915125E-2,-1.4467615E-1,-1.0925392E-2,-8.480244E-2,4.309323E-2,-1.02237105E-1,-5.1088728E-2,3.1162722E-2,-1.5406899E-1,-4.2410243E-2,4.365104E-3,-1.1781138E-1],"categories":[],"categories_nodes":[],"categories_segments":[],"categories_sizes":[],"default_left":[0,0,0,0,0,0,0,0,0,0,0,0,0,0,0,0,0,0,0,0,0,0,0,0,0,0,0,0,0,0,0,0,0,0,0,0,0,0,0,0,0,0,0,0,0,0,0,0,0,0,0,0,0,0,0,0,0,0,0,0,0,0,0],"id":4,"left_children":[1,3,5,7,9,11,13,15,17,19,21,23,25,27,29,31,33,35,37,39,41,43,45,47,49,51,53,55,57,59,61,-1,-1,-1,-1,-1,-1,-1,-1,-1,-1,-1,-1,-1,-1,-1,-1,-1,-1,-1,-1,-1,-1,-1,-1,-1,-1,-1,-1,-1,-1,-1,-1],"loss_changes":[4.1867105E2,4.8271652E1,6.0336E1,1.7212036E1,2.381022E1,5.3361145E1,1.1847168E1,5.4086E0,8.531161E0,7.257206E0,9.991928E0,1.5224022E1,1.4665062E1,7.5138664E0,2.396103E0,5.863039E0,3.0676727E0,5.5651703E0,6.638798E0,4.5305953E0,4.0667458E0,4.4691877E0,4.043833E0,1.28119335E1,2.9570303E0,5.333481E0,9.42098E0,4.926647E0,3.5313585E0,9.814148E-1,4.0227356E0,0E0,0E0,0E0,0E0,0E0,0E0,0E0,0E0,0E0,0E0,0E0,0E0,0E0,0E0,0E0,0E0,0E0,0E0,0E0,0E0,0E0,0E0,0E0,0E0,0E0,0E0,0E0,0E0,0E0,0E0,0E0,0E0],"parents":[2147483647,0,0,1,1,2,2,3,3,4,4,5,5,6,6,7,7,8,8,9,9,10,10,11,11,12,12,13,13,14,14,15,15,16,16,17,17,18,18,19,19,20,20,21,21,22,22,23,23,24,24,25,25,26,26,27,27,28,28,29,29,30,30],"right_children":[2,4,6,8,10,12,14,16,18,20,22,24,26,28,30,32,34,36,38,40,42,44,46,48,50,52,54,56,58,60,62,-1,-1,-1,-1,-1,-1,-1,-1,-1,-1,-1,-1,-1,-1,-1,-1,-1,-1,-1,-1,-1,-1,-1,-1,-1,-1,-1,-1,-1,-1,-1,-1],"split_conditions":[1.1141071E1,7.4773746E0,1.6073788E1,2.495231E2,1.5578635E2,1.5361604E2,1.0989082E2,1E0,4.532949E0,3.8986197E0,4.4431176E0,4.425326E0,4.174588E0,4.578758E0,5.5E1,8.6871864E1,3.7E1,4.348165E0,3.6658688E0,3.1E1,1.18E2,1E0,3.5E1,1E0,1.02E2,2.1852396E2,1.3348267E1,1.945834E1,9.9E1,4.9323344E0,5.9E1,1.1687421E-1,4.2865936E-2,8.156254E-2,1.1539538E-1,3.7133172E-2,1.2553324E-1,-9.813164E-2,2.146349E-2,-6.3407294E-2,3.4868833E-2,6.3042745E-2,1.3356207E-1,-9.9939324E-2,-2.6544577E-2,-3.0574653E-2,5.5298246E-2,-8.979689E-2,6.59128E-3,3.6166582E-2,9.10233E-2,-7.7915125E-2,-1.4467615E-1,-1.0925392E-2,-8.480244E-2,4.309323E-2,-1.02237105E-1,-5.1088728E-2,3.1162722E-2,-1.5406899E-1,-4.2410243E-2,4.365104E-3,-1.1781138E-1],"split_indices":[0,0,0,1,1,1,1,4,0,2,2,2,2,2,3,1,3,2,2,3,3,4,3,4,3,1,0,1,3,2,3,0,0,0,0,0,0,0,0,0,0,0,0,0,0,0,0,0,0,0,0,0,0,0,0,0,0,0,0,0,0,0,0],"split_type":[0,0,0,0,0,0,0,0,0,0,0,0,0,0,0,0,0,0,0,0,0,0,0,0,0,0,0,0,0,0,0,0,0,0,0,0,0,0,0,0,0,0,0,0,0,0,0,0,0,0,0,0,0,0,0,0,0,0,0,0,0,0,0],"sum_hessian":[9.232759E2,4.7326257E2,4.5001328E2,3.0942444E2,1.6383813E2,2.493318E2,2.0068149E2,2.520324E2,5.7392044E1,8.302258E1,8.081555E1,1.2178903E2,1.2754277E2,6.817471E1,1.3250677E2,5.0462215E1,2.0157018E2,3.0861101E1,2.6530945E1,2.4170229E1,5.8852352E1,5.4507874E1,2.6307676E1,7.6123665E1,4.5665367E1,5.881299E1,6.872978E1,4.7194057E1,2.0980652E1,4.371481E1,8.879197E1,1.6142767E1,3.431945E1,4.7444405E1,1.5412576E2,1.9157257E1,1.1703843E1,4.835914E0,2.169503E1,5.152049E0,1.9018179E1,4.827815E1,1.0574205E1,9.586918E0,4.4920956E1,6.7450275E0,1.9562649E1,1.6932735E1,5.9190926E1,2.989197E1,1.5773398E1,2.5841465E1,3.2971523E1,3.4717834E1,3.4011944E1,1.9303789E0,4.526368E1,1.3719585E1,7.2610664E0,4.198285E1,1.731962E0,2.7086234E0,8.608334E1],"tree_param":{"num_deleted":"0","num_feature":"5","num_nodes":"63","size_leaf_vector":"1"}},{"base_weights":[2.3035218E-3,6.114741E-1,-6.270728E-1,8.3420604E-1,1.9879219E-1,-2.1806382E-1,-9.124887E-1,9.7071207E-1,4.3442753E-1,5.656134E-1,-1.3514829E-1,6.009769E-2,-9.2234033E-1,-4.479989E-1,-1.1110727E0,1.0760381E0,7.3341733E-1,8.5787016E-1,2.1867712E-1,1.2695906E-1,7.478065E-1,-4.4864506E-1,2.4588516E-1,-1.6634391E-1,6.3953E-1,-1.3153968E0,-1.7682412E-1,6.538017E-3,-7.054285E-1,-1.0190004E0,-1.4221436E-1,1.1898335E-1,9.084548E-2,4.997113E-2,9.664011E-2,-4.2124283E-2,9.71295E-2,-5.7013243E-2,4.039865E-2,3.666961E-2,-4.4571653E-2,2.3727678E-2,8.9070044E-2,7.796845E-2,-5.1774263E-2,7.338353E-2,6.0303744E-5,-5.591516E-2,1.6104281E-2,-1.3139767E-2,7.781807E-2,-1.4088607E-1,-8.027985E-3,-6.159559E-2,3.0473474E-2,-3.728574E-2,6.010831E-2,-1.2272978E-1,-4.0153485E-2,-1.16204135E-1,-8.084993E-2],"categories":[],"categories_nodes":[],"categories_segments":[],"categories_sizes":[],"default_left":[0,0,0,0,0,0,0,0,0,0,0,0,0,0,0,0,0,0,0,0,0,0,0,0,0,0,0,0,0,0,0,0,0,0,0,0,0,0,0,0,0,0,0,0,0,0,0,0,0,0,0,0,0,0,0,0,0,0,0,0,0],"id":5,"left_children":[1,3,5,7,9,11,13,15,17,19,21,23,25,27,29,31,33,35,37,39,41,43,45,47,49,51,53,55,57,59,-1,-1,-1,-1,-1,-1,-1,-1,-1,-1,-1,-1,-1,-1,-1,-1,-1,-1,-1,-1,-1,-1,-1,-1,-1,-1,-1,-1,-1,-1,-1],"loss_changes":[3.4805707E2,4.2237045E1,5.1925323E1,1.5911575E1,2.004554E1,3.6264805E1,2.373143E1,4.766922E0,6.9377003E0,6.128992E0,1.0400042E1,1.7614687E1,1.5120361E1,9.405771E0,3.80159E0,1.8144073E0,3.4091225E0,4.1789017E0,7.9789734E0,3.466437E0,3.7877903E0,4.444764E0,4.73049E0,1.2530587E1,4.132148E0,3.829277E0,4.2568974E0,7.0004554E0,7.6434536E0,3.426117E0,0E0,0E0,0E0,0E0,0E0,0E0,0E0,0E0,0E0,0E0,0E0,0E0,0E0,0E0,0E0,0E0,0E0,0E0,0E0,0E0,0E0,0E0,0E0,0E0,0E0,0E0,0E0,0E0,0E0,0E0,0E0],"parents":[2147483647,0,0,1,1,2,2,3,3,4,4,5,5,6,6,7,7,8,8,9,9,10,10,11,11,12,12,13,13,14,14,15,15,16,16,17,17,18,18,19,19,20,20,21,21,22,22,23,23,24,24,25,25,26,26,27,27,28,28,29,29],"right_children":[2,4,6,8,10,12,14,16,18,20,22,24,26,28,30,32,34,36,38,40,42,44,46,48,50,52,54,56,58,60,-1,-1,-1,-1,-1,-1,-1,-1,-1,-1,-1,-1,-1,-1,-1,-1,-1,-1,-1,-1,-1,-1,-1,-1,-1,-1,-1,-1,-1,-1,-1],"split_conditions":[1.1141071E1,7.4773746E0,1.4715131E1,2.3015796E2,1.4620128E2,2.1964943E2,9.627818E1,5.2462354E0,3.0592752E0,3.8986197E0,4.269604E0,1.08E2,4.505995E0,1.6560661E1,1.8811836E1,1.3847652E2,7.4E1,1.2E1,3.7000988E0,3.7885149E0,1E0,3.5606582E0,1.9269902E2,4.122246E0,3.7063282E0,1.34E2,7.3E1,9.2E1,4.031399E0,4.2899632E0,-1.4221436E-1,1.1898335E-1,9.084548E-2,4.997113E-2,9.664011E-2,-4.2124283E-2,9.71295E-2,-5.7013243E-2,4.039865E-2,3.666961E-2,-4.4571653E-2,2.3727678E-2,8.9070044E-2,7.796845E-2,-5.1774263E-2,7.338353E-2,6.0303744E-5,-5.591516E-2,1.6104281E-2,-1.3139767E-2,7.781807E-2,-1.4088607E-1,-8.027985E-3,-6.159559E-2,3.0473474E-2,-3.728574E-2,6.010831E-2,-1.2272978E-1,-4.0153485E-2,-1.16204135E-1,-8.084993E-2],"split_indices":[0,0,0,1,1,1,1,0,0,2,2,3,2,0,0,1,3,3,2,2,4,2,1,2,2,3,3,3,2,2,0,0,0,0,0,0,0,0,0,0,0,0,0,0,0,0,0,0,0,0,0,0,0,0,0,0,0,0,0,0,0],"split_type":[0,0,0,0,0,0,0,0,0,0,0,0,0,0,0,0,0,0,0,0,0,0,0,0,0,0,0,0,0,0,0,0,0,0,0,0,0,0,0,0,0,0,0,0,0,0,0,0,0,0,0,0,0,0,0,0,0,0,0,0,0],"sum_hessian":[9.058229E2,4.6031476E2,4.4550815E2,2.9829697E2,1.6201778E2,1.8383354E2,2.6167462E2,2.2130377E2,7.69932E1,7.6877235E1,8.514054E1,1.3243973E2,5.139381E1,7.934408E1,1.8233054E2,1.5082413E2,7.047964E1,2.4983368E1,5.2009834E1,2.305825E1,5.3818985E1,4.6612488E1,3.8528053E1,9.5738235E1,3.6701492E1,3.315119E1,1.8242619E1,2.9041258E1,5.030282E1,1.4398805E2,3.8342495E1,8.6194695E1,6.462944E1,3.675526E1,3.3724377E1,1.8138943E0,2.3169474E1,9.498928E0,4.2510906E1,1.650747E1,6.5507812E0,1.235122E1,4.1467766E1,1.9347696E0,4.467772E1,1.2222171E1,2.6305882E1,4.319898E1,5.2539257E1,5.60253E0,3.1098963E1,3.0688272E1,2.4629185E0,9.395661E0,8.846957E0,1.7955948E1,1.108531E1,1.7393976E1,3.290884E1,8.303994E1,6.094811E1],"tree_param":{"num_deleted":"0","num_feature":"5","num_nodes":"61","size_leaf_vector":"1"}},{"base_weights":[2.5230122E-3,6.175433E-1,-5.305381E-1,8.6688167E-1,3.414761E-1,-1.6612719E-1,-8.3724195E-1,1.0695128E0,6.1467284E-1,5.017827E-1,-3.1068125E-1,3.7776482E-1,-4.7434908E-1,-4.0737465E-1,-1.0238206E0,4.6266505E-1,1.1188554E0,4.297438E-1,1.0759151E0,-3.1466417E-2,6.2155974E-1,-6.831103E-1,-5.845253E-3,-2.6871645E-1,5.558872E-1,-9.23124E-1,-1.6047144E-1,-6.720794E-1,-2.844391E-2,-8.987259E-1,-1.2393888E0,1.0592703E-1,-6.5064626E-3,5.3395815E-2,1.174623E-1,7.526149E-2,1.4729141E-2,2.4780348E-2,1.1886175E-1,-8.6582236E-2,1.3964549E-2,-2.9412005E-2,6.778506E-2,6.0705155E-2,-8.347269E-2,-2.697417E-2,8.4108464E-2,-7.2865255E-2,1.9761618E-2,-7.149416E-4,6.7077644E-2,-1.2399893E-1,-4.9079344E-2,-9.0635285E-2,9.714E-4,-9.4432734E-2,-2.369696E-2,7.582017E-2,-2.7558593E-2,-1.2482583E-1,-7.803773E-2,-6.6510834E-2,-1.2887816E-1],"categories":[],"categories_nodes":[],"categories_segments":[],"categories_sizes":[],"default_left":[0,0,0,0,0,0,0,0,0,0,0,0,0,0,0,0,0,0,0,0,0,0,0,0,0,0,0,0,0,0,0,0,0,0,0,0,0,0,0,0,0,0,0,0,0,0,0,0,0,0,0,0,0,0,0,0,0,0,0,0,0,0,0],"id":6,"left_children":[1,3,5,7,9,11,13,15,17,19,21,23,25,27,29,31,33,35,37,39,41,43,45,47,49,51,53,55,57,59,61,-1,-1,-1,-1,-1,-1,-1,-1,-1,-1,-1,-1,-1,-1,-1,-1,-1,-1,-1,-1,-1,-1,-1,-1,-1,-1,-1,-1,-1,-1,-1,-1],"loss_changes":[2.9162393E2,2.8133072E1,5.3119095E1,1.03997345E1,2.0819113E1,3.6895184E1,2.0315384E1,3.0342407E0,7.959839E0,1.017717E1,4.4935503E0,9.336097E0,1.9606005E1,7.9951887E0,3.729248E0,3.4140873E0,2.9280548E0,6.4685717E0,2.280758E0,4.4212937E0,6.8955956E0,3.9929314E0,5.321212E0,3.9847581E0,4.0717506E0,7.269268E0,1.0637672E1,5.3432026E0,6.800351E0,3.8775864E0,9.386749E-1,0E0,0E0,0E0,0E0,0E0,0E0,0E0,0E0,0E0,0E0,0E0,0E0,0E0,0E0,0E0,0E0,0E0,0E0,0E0,0E0,0E0,0E0,0E0,0E0,0E0,0E0,0E0,0E0,0E0,0E0,0E0,0E0],"parents":[2147483647,0,0,1,1,2,2,3,3,4,4,5,5,6,6,7,7,8,8,9,9,10,10,11,11,12,12,13,13,14,14,15,15,16,16,17,17,18,18,19,19,20,20,21,21,22,22,23,23,24,24,25,25,26,26,27,27,28,28,29,29,30,30],"right_children":[2,4,6,8,10,12,14,16,18,20,22,24,26,28,30,32,34,36,38,40,42,44,46,48,50,52,54,56,58,60,62,-1,-1,-1,-1,-1,-1,-1,-1,-1,-1,-1,-1,-1,-1,-1,-1,-1,-1,-1,-1,-1,-1,-1,-1,-1,-1,-1,-1,-1,-1,-1,-1],"split_conditions":[1.0361087E1,5.8427677E0,1.4715131E1,1.7191263E2,2.5086893E2,1.1969205E2,9.627818E1,3.6165087E0,4.592473E0,1E0,4.025974E0,1E0,4.116564E0,8.5E1,2.229136E2,8.338544E1,1.6E1,3.0592752E0,1.8E1,2.3E1,9E0,3.531621E0,1.04E2,4.014338E0,3E1,7.7E1,2.5E1,4.4659133E0,1.6007713E1,1E0,3.6362572E0,1.0592703E-1,-6.5064626E-3,5.3395815E-2,1.174623E-1,7.526149E-2,1.4729141E-2,2.4780348E-2,1.1886175E-1,-8.6582236E-2,1.3964549E-2,-2.9412005E-2,6.778506E-2,6.0705155E-2,-8.347269E-2,-2.697417E-2,8.4108464E-2,-7.2865255E-2,1.9761618E-2,-7.149416E-4,6.7077644E-2,-1.2399893E-1,-4.9079344E-2,-9.0635285E-2,9.714E-4,-9.4432734E-2,-2.369696E-2,7.582017E-2,-2.7558593E-2,-1.2482583E-1,-7.803773E-2,-6.6510834E-2,-1.2887816E-1],"split_indices":[0,0,0,1,1,1,1,2,2,4,2,4,2,3,1,1,3,0,3,3,3,2,3,2,3,3,3,2,0,4,2,0,0,0,0,0,0,0,0,0,0,0,0,0,0,0,0,0,0,0,0,0,0,0,0,0,0,0,0,0,0,0,0],"split_type":[0,0,0,0,0,0,0,0,0,0,0,0,0,0,0,0,0,0,0,0,0,0,0,0,0,0,0,0,0,0,0,0,0,0,0,0,0,0,0,0,0,0,0,0,0,0,0,0,0,0,0,0,0,0,0,0,0,0,0,0,0,0,0],"sum_hessian":[8.8752277E2,4.120086E2,4.7551416E2,2.1535979E2,1.9664882E2,2.1801764E2,2.5749652E2,1.1762012E2,9.773966E1,1.5803328E2,3.861553E1,7.877851E1,1.3923912E2,7.889957E1,1.7859695E2,9.624762E0,1.0799535E2,7.1146225E1,2.659344E1,2.9121449E1,1.2891183E2,1.682226E1,2.1793268E1,1.6907063E1,6.187145E1,5.6506466E1,8.273266E1,4.599548E1,3.2904087E1,1.1628536E2,6.2311596E1,4.0448194E0,5.579942E0,1.0321118E1,9.767424E1,3.242111E1,3.8725113E1,3.5688767E0,2.3024563E1,4.2649956E0,2.4856453E1,7.2211356E0,1.21690704E2,1.4531343E0,1.5369125E1,1.7135494E1,4.6577735E0,8.228707E0,8.678354E0,1.06443815E1,5.122707E1,3.1529558E1,2.4976908E1,1.4566325E1,6.8166336E1,2.7572844E1,1.8422634E1,7.3718452E0,2.553224E1,2.6998983E1,8.928638E1,6.08051E0,5.6231087E1],"tree_param":{"num_deleted":"0","num_feature":"5","num_nodes":"63","size_leaf_vector":"1"}},{"base_weights":[2.4830652E-3,4.3735167E-1,-6.454123E-1,7.1867096E-1,6.802182E-2,-7.119214E-2,-7.81674E-1,9.84859E-1,5.2893925E-1,3.6059877E-1,-3.9985394E-1,3.4643662E-1,-5.844289E-1,-9.90154E-1,-5.172768E-1,3.9251328E-1,1.0317215E0,1.11930236E-1,6.381871E-1,-1.615818E-1,4.9854234E-1,-6.185039E-1,1.5669666E-1,-3.604462E-1,5.2788967E-1,-7.905347E-1,-8.737735E-2,-7.9844576E-1,-1.2365236E0,-1.4244811E-1,-7.3700905E-1,6.862119E-2,-9.287494E-2,6.443386E-2,1.09229565E-1,-3.218238E-2,3.9730396E-2,8.523108E-2,4.020148E-2,-4.8029315E-2,4.9743947E-2,-3.8402647E-2,5.9162736E-2,-8.272125E-2,3.2091357E-3,-4.675794E-2,3.812824E-2,-6.099708E-2,4.737171E-2,5.9236176E-2,-6.570567E-2,-5.3175695E-2,-1.477444E-1,-1.1236805E-1,3.644212E-2,-1.00966826E-1,-3.8286842E-2,-1.279917E-1,-3.0360525E-2,-4.439782E-2,4.014962E-2,-7.9649754E-2,2.9316608E-2],"categories":[],"categories_nodes":[],"categories_segments":[],"categories_sizes":[],"default_left":[0,0,0,0,0,0,0,0,0,0,0,0,0,0,0,0,0,0,0,0,0,0,0,0,0,0,0,0,0,0,0,0,0,0,0,0,0,0,0,0,0,0,0,0,0,0,0,0,0,0,0,0,0,0,0,0,0,0,0,0,0,0,0],"id":7,"left_children":[1,3,5,7,9,11,13,15,17,19,21,23,25,27,29,31,33,35,37,39,41,43,45,47,49,51,53,55,57,59,61,-1,-1,-1,-1,-1,-1,-1,-1,-1,-1,-1,-1,-1,-1,-1,-1,-1,-1,-1,-1,-1,-1,-1,-1,-1,-1,-1,-1,-1,-1,-1,-1],"loss_changes":[2.455126E2,5.4125374E1,2.732788E1,1.4421524E1,3.1155851E1,1.4825148E1,1.5073639E1,2.9806137E0,7.8965645E0,1.0158459E1,1.0761229E1,5.095407E0,3.1046038E0,6.4280243E0,1.0334656E1,4.7334757E0,1.9339066E0,4.772286E0,6.6552086E0,6.5382833E0,9.339561E0,8.597187E0,3.7556982E0,2.0385296E0,2.7449818E0,3.0849295E0,5.187357E0,7.6116943E0,2.3190002E0,8.064754E0,5.115925E0,0E0,0E0,0E0,0E0,0E0,0E0,0E0,0E0,0E0,0E0,0E0,0E0,0E0,0E0,0E0,0E0,0E0,0E0,0E0,0E0,0E0,0E0,0E0,0E0,0E0,0E0,0E0,0E0,0E0,0E0,0E0,0E0],"parents":[2147483647,0,0,1,1,2,2,3,3,4,4,5,5,6,6,7,7,8,8,9,9,10,10,11,11,12,12,13,13,14,14,15,15,16,16,17,17,18,18,19,19,20,20,21,21,22,22,23,23,24,24,25,25,26,26,27,27,28,28,29,29,30,30],"right_children":[2,4,6,8,10,12,14,16,18,20,22,24,26,28,30,32,34,36,38,40,42,44,46,48,50,52,54,56,58,60,62,-1,-1,-1,-1,-1,-1,-1,-1,-1,-1,-1,-1,-1,-1,-1,-1,-1,-1,-1,-1,-1,-1,-1,-1,-1,-1,-1,-1,-1,-1,-1,-1],"split_conditions":[1.2810497E1,7.909592E0,6.859171E1,1.3847652E2,1.9269902E2,1.6560661E1,4.2899632E0,1.4E1,1E0,3E1,4.5404525E0,1E0,5.278361E1,1.676582E1,1.5298932E2,4.905161E0,3.7112179E0,5.7E1,4.532949E0,4.3960238E0,3.6413336E0,1.17E2,3.4E1,4.425326E0,4.9423685E0,4.5110348E1,3.844942E0,9.5E1,1.44E2,9.8E1,4.973671E0,6.862119E-2,-9.287494E-2,6.443386E-2,1.09229565E-1,-3.218238E-2,3.9730396E-2,8.523108E-2,4.020148E-2,-4.8029315E-2,4.9743947E-2,-3.8402647E-2,5.9162736E-2,-8.272125E-2,3.2091357E-3,-4.675794E-2,3.812824E-2,-6.099708E-2,4.737171E-2,5.9236176E-2,-6.570567E-2,-5.3175695E-2,-1.477444E-1,-1.1236805E-1,3.644212E-2,-1.00966826E-1,-3.8286842E-2,-1.279917E-1,-3.0360525E-2,-4.439782E-2,4.014962E-2,-7.9649754E-2,2.9316608E-2],"split_indices":[0,0,1,1,1,0,2,3,4,3,2,4,1,0,1,2,2,3,0,2,2,3,3,2,2,1,2,3,3,3,2,0,0,0,0,0,0,0,0,0,0,0,0,0,0,0,0,0,0,0,0,0,0,0,0,0,0,0,0,0,0,0,0],"split_type":[0,0,0,0,0,0,0,0,0,0,0,0,0,0,0,0,0,0,0,0,0,0,0,0,0,0,0,0,0,0,0,0,0,0,0,0,0,0,0,0,0,0,0,0,0,0,0,0,0,0,0,0,0,0,0,0,0,0,0,0,0,0,0],"sum_hessian":[8.6938477E2,5.204097E2,3.4897504E2,2.9486478E2,2.2554497E2,6.722112E1,2.817539E2,1.2096441E2,1.7390036E2,1.3890974E2,8.663521E1,3.7241848E1,2.9979275E1,1.5600073E2,1.2575318E2,9.555664E0,1.11408745E2,3.6520996E1,1.3737936E2,2.899162E1,1.0991813E2,6.211931E1,2.4515902E1,7.4055924E0,2.9836254E1,2.0774529E1,9.204746E0,9.011788E1,6.588285E1,4.7083836E1,7.866934E1,8.21109E0,1.3445737E0,1.663868E1,9.4770065E1,1.4442055E1,2.2078941E1,7.068477E1,6.66946E1,1.9724024E1,9.267594E0,1.0188852E1,9.972928E1,4.682618E1,1.5293131E1,6.199982E0,1.831592E1,5.9072967E0,1.4982959E0,2.877094E1,1.0653131E0,1.6378445E1,4.3960834E0,2.3431253E0,6.8616204E0,5.8801636E1,3.1316246E1,6.2599186E1,3.2836635E0,3.041009E1,1.6673748E1,7.458897E1,4.080377E0],"tree_param":{"num_deleted":"0","num_feature":"5","num_nodes":"63","size_leaf_vector":"1"}},{"base_weights":[2.105988E-3,5.368679E-1,-4.477938E-1,8.0469173E-1,3.10961E-1,-1.3464336E-1,-7.171977E-1,9.424656E-1,4.029389E-1,7.086001E-1,1.5035373E-1,9.850837E-2,-7.0780075E-1,-3.3936664E-1,-8.869058E-1,6.547966E-1,1.0104883E0,1.3740636E-1,1.1405429E0,9.4612384E-1,4.00371E-1,-2.4264473E-1,2.8285575E-1,-1.379432E-1,4.044674E-1,-1.0297439E0,-4.3735493E-2,-9.0105486E-1,-1.8349862E-1,-7.936063E-1,-1.2163564E0,-6.897965E-2,7.9095595E-2,2.7937174E-2,1.0303538E-1,3.259925E-2,-6.4457186E-2,2.1724742E-2,1.21063486E-1,7.585596E-2,1.20838106E-1,-4.5768414E-2,4.9189672E-2,-1.18199006E-1,-1.2476447E-2,4.2584725E-2,-3.269488E-2,-9.789657E-2,1.9539576E-3,7.390314E-2,1.8710842E-2,-1.1515675E-1,5.8874034E-4,-3.703763E-2,4.297873E-2,-1.1244108E-1,2.1900697E-2,-4.006396E-2,1.14047015E-2,-6.594426E-2,-1.02538146E-1,-6.0166158E-2,-1.2713005E-1],"categories":[],"categories_nodes":[],"categories_segments":[],"categories_sizes":[],"default_left":[0,0,0,0,0,0,0,0,0,0,0,0,0,0,0,0,0,0,0,0,0,0,0,0,0,0,0,0,0,0,0,0,0,0,0,0,0,0,0,0,0,0,0,0,0,0,0,0,0,0,0,0,0,0,0,0,0,0,0,0,0,0,0],"id":8,"left_children":[1,3,5,7,9,11,13,15,17,19,21,23,25,27,29,31,33,35,37,39,41,43,45,47,49,51,53,55,57,59,61,-1,-1,-1,-1,-1,-1,-1,-1,-1,-1,-1,-1,-1,-1,-1,-1,-1,-1,-1,-1,-1,-1,-1,-1,-1,-1,-1,-1,-1,-1,-1,-1],"loss_changes":[2.0522055E2,2.3330093E1,3.898548E1,9.455833E0,1.3499128E1,2.8862852E1,1.5651703E1,1.9129181E0,9.072698E0,4.088785E0,8.036823E0,1.1199665E1,1.330106E1,6.7275524E0,4.292633E0,5.6723003E0,1.2309113E0,5.4875603E0,5.3536415E-1,7.4258614E-1,2.4470286E0,4.184435E0,1.0157986E1,1.1626067E1,4.763383E0,5.3055153E0,3.4733539E0,4.46076E0,4.1086664E0,3.5585632E0,4.467392E-1,0E0,0E0,0E0,0E0,0E0,0E0,0E0,0E0,0E0,0E0,0E0,0E0,0E0,0E0,0E0,0E0,0E0,0E0,0E0,0E0,0E0,0E0,0E0,0E0,0E0,0E0,0E0,0E0,0E0,0E0,0E0,0E0],"parents":[2147483647,0,0,1,1,2,2,3,3,4,4,5,5,6,6,7,7,8,8,9,9,10,10,11,11,12,12,13,13,14,14,15,15,16,16,17,17,18,18,19,19,20,20,21,21,22,22,23,23,24,24,25,25,26,26,27,27,28,28,29,29,30,30],"right_children":[2,4,6,8,10,12,14,16,18,20,22,24,26,28,30,32,34,36,38,40,42,44,46,48,50,52,54,56,58,60,62,-1,-1,-1,-1,-1,-1,-1,-1,-1,-1,-1,-1,-1,-1,-1,-1,-1,-1,-1,-1,-1,-1,-1,-1,-1,-1,-1,-1,-1,-1,-1,-1],"split_conditions":[1.0361087E1,5.2462354E0,1.4715131E1,2.3160994E2,1.0328311E2,2.149461E2,9.627818E1,1E0,4.592473E0,8.256972E0,3.6E1,4.300935E0,4.505995E0,3.8500931E0,1.8811836E1,2.2E1,4E0,4.532949E0,8.9138836E-1,4.451001E0,1.4E1,1.2488246E2,2.7371194E2,2.4E1,9.184455E1,1.31E2,2.6355023E2,1.18E2,8.6E1,2.229136E2,1.17550095E2,-6.897965E-2,7.9095595E-2,2.7937174E-2,1.0303538E-1,3.259925E-2,-6.4457186E-2,2.1724742E-2,1.21063486E-1,7.585596E-2,1.20838106E-1,-4.5768414E-2,4.9189672E-2,-1.18199006E-1,-1.2476447E-2,4.2584725E-2,-3.269488E-2,-9.789657E-2,1.9539576E-3,7.390314E-2,1.8710842E-2,-1.1515675E-1,5.8874034E-4,-3.703763E-2,4.297873E-2,-1.1244108E-1,2.1900697E-2,-4.006396E-2,1.14047015E-2,-6.594426E-2,-1.02538146E-1,-6.0166158E-2,-1.2713005E-1],"split_indices":[0,0,0,1,1,1,1,4,2,0,3,2,2,2,0,3,3,0,0,2,3,1,1,3,1,3,1,3,3,1,1,0,0,0,0,0,0,0,0,0,0,0,0,0,0,0,0,0,0,0,0,0,0,0,0,0,0,0,0,0,0,0,0],"split_type":[0,0,0,0,0,0,0,0,0,0,0,0,0,0,0,0,0,0,0,0,0,0,0,0,0,0,0,0,0,0,0,0,0,0,0,0,0,0,0,0,0,0,0,0,0,0,0,0,0,0,0,0,0,0,0,0,0,0,0,0,0,0,0],"sum_hessian":[8.5099194E2,3.887367E2,4.6225525E2,1.7669453E2,2.1204218E2,2.1446481E2,2.4779044E2,1.305715E2,4.612303E1,6.002282E1,1.5201935E2,1.53039E2,6.1425816E1,7.773164E1,1.7005879E2,2.7002695E1,1.0356881E2,3.4786434E1,1.1336598E1,3.273072E1,2.7292099E1,3.812124E1,1.1389811E2,8.663489E1,6.640412E1,4.0998707E1,2.0427107E1,1.5846412E1,6.1885235E1,1.3518394E2,3.487485E1,2.1090834E0,2.489361E1,3.138148E0,1.00430664E2,2.8497047E1,6.289386E0,1.089147E0,1.0247451E1,2.1352219E1,1.1378504E1,2.2449598E0,2.5047138E1,3.2439928E0,3.4877247E1,9.250785E1,2.1390259E1,1.2841213E1,7.379367E1,2.5206158E1,4.119796E1,3.6583378E1,4.415329E0,1.221731E1,8.209796E0,1.3208559E1,2.6378522E0,3.5576187E1,2.6309046E1,8.8057045E1,4.71269E1,3.8420296E0,3.1032822E1],"tree_param":{"num_deleted":"0","num_feature":"5","num_nodes":"63","size_leaf_vector":"1"}},{"base_weights":[1.923731E-3,3.7747255E-1,-5.4962206E-1,6.5348846E-1,7.781822E-2,-5.5060193E-2,-6.696402E-1,8.625226E-1,4.2053005E-1,4.2707816E-1,-2.0631039E-1,3.8934907E-1,-4.4592577E-1,-8.673536E-1,-4.243704E-1,9.6564454E-1,5.9590006E-1,9.810988E-3,5.4667604E-1,2.2612216E-2,6.2754923E-1,-3.9754605E-1,2.7832222E-1,-2.3859087E-1,5.697296E-1,-6.580643E-1,8.131779E-2,-6.8541217E-1,-1.1114551E0,2.2652741E-1,-5.235181E-1,4.249494E-2,1.0207953E-1,7.9762004E-2,2.4710802E-2,-4.944673E-2,3.7809946E-2,6.0527027E-2,-3.2189988E-2,2.3678834E-2,-5.0348032E-2,4.9932104E-2,1.1674776E-1,-6.56918E-2,-1.1838648E-2,-3.25254E-2,4.185404E-2,-8.058177E-2,2.0565974E-2,-3.0926956E-2,6.889942E-2,-4.395404E-2,-1.4210863E-1,7.604102E-2,-4.521584E-2,-1.1045903E-1,-4.93957E-2,-1.1553415E-1,-2.252411E-2,-2.5035784E-2,7.608484E-2,-4.2021584E-2,-1.1440239E-1],"categories":[],"categories_nodes":[],"categories_segments":[],"categories_sizes":[],"default_left":[0,0,0,0,0,0,0,0,0,0,0,0,0,0,0,0,0,0,0,0,0,0,0,0,0,0,0,0,0,0,0,0,0,0,0,0,0,0,0,0,0,0,0,0,0,0,0,0,0,0,0,0,0,0,0,0,0,0,0,0,0,0,0],"id":9,"left_children":[1,3,5,7,9,11,13,15,17,19,21,23,25,27,29,31,33,35,37,39,41,43,45,47,49,51,53,55,57,59,61,-1,-1,-1,-1,-1,-1,-1,-1,-1,-1,-1,-1,-1,-1,-1,-1,-1,-1,-1,-1,-1,-1,-1,-1,-1,-1,-1,-1,-1,-1,-1,-1],"loss_changes":[1.7292789E2,4.1028786E1,2.0036888E1,1.222036E1,2.3832518E1,1.1834915E1,1.2824844E1,3.1429977E0,6.4273205E0,8.715361E0,1.2401201E1,3.7546978E0,4.1006846E0,5.885536E0,8.081139E0,2.4262543E0,2.6404982E0,5.794093E0,5.028017E0,4.2561703E0,4.398144E0,6.8372355E0,3.3615665E0,2.139903E0,2.845909E0,3.6959982E0,4.427366E0,6.545971E0,2.1631699E0,4.52426E0,6.401991E0,0E0,0E0,0E0,0E0,0E0,0E0,0E0,0E0,0E0,0E0,0E0,0E0,0E0,0E0,0E0,0E0,0E0,0E0,0E0,0E0,0E0,0E0,0E0,0E0,0E0,0E0,0E0,0E0,0E0,0E0,0E0,0E0],"parents":[2147483647,0,0,1,1,2,2,3,3,4,4,5,5,6,6,7,7,8,8,9,9,10,10,11,11,12,12,13,13,14,14,15,15,16,16,17,17,18,18,19,19,20,20,21,21,22,22,23,23,24,24,25,25,26,26,27,27,28,28,29,29,30,30],"right_children":[2,4,6,8,10,12,14,16,18,20,22,24,26,28,30,32,34,36,38,40,42,44,46,48,50,52,54,56,58,60,62,-1,-1,-1,-1,-1,-1,-1,-1,-1,-1,-1,-1,-1,-1,-1,-1,-1,-1,-1,-1,-1,-1,-1,-1,-1,-1,-1,-1,-1,-1,-1,-1],"split_conditions":[1.2810497E1,7.4773746E0,6.859171E1,1.7191263E2,1.4620128E2,1.6142841E1,4.2899632E0,5.561741E0,3.7E1,3.8986197E0,4.5404525E0,1E0,5.278361E1,1.676582E1,9.627818E1,1.6E1,1.17550095E2,4.2488174E0,2.921515E2,3.7885149E0,1.18E2,7.7E1,1E0,1.4222146E1,3.7591844E0,4.57693E1,1.7608774E1,4.5E1,1.44E2,8.6871864E1,1.8961746E1,4.249494E-2,1.0207953E-1,7.9762004E-2,2.4710802E-2,-4.944673E-2,3.7809946E-2,6.0527027E-2,-3.2189988E-2,2.3678834E-2,-5.0348032E-2,4.9932104E-2,1.1674776E-1,-6.56918E-2,-1.1838648E-2,-3.25254E-2,4.185404E-2,-8.058177E-2,2.0565974E-2,-3.0926956E-2,6.889942E-2,-4.395404E-2,-1.4210863E-1,7.604102E-2,-4.521584E-2,-1.1045903E-1,-4.93957E-2,-1.1553415E-1,-2.252411E-2,-2.5035784E-2,7.608484E-2,-4.2021584E-2,-1.1440239E-1],"split_indices":[0,0,1,1,1,0,2,0,3,2,2,4,1,0,1,3,1,2,1,2,3,3,4,0,2,1,0,3,3,1,0,0,0,0,0,0,0,0,0,0,0,0,0,0,0,0,0,0,0,0,0,0,0,0,0,0,0,0,0,0,0,0,0],"split_type":[0,0,0,0,0,0,0,0,0,0,0,0,0,0,0,0,0,0,0,0,0,0,0,0,0,0,0,0,0,0,0,0,0,0,0,0,0,0,0,0,0,0,0,0,0,0,0,0,0,0,0,0,0,0,0,0,0,0,0,0,0,0,0],"sum_hessian":[8.328649E2,4.956746E2,3.3719037E2,2.5739944E2,2.3827513E2,6.6133026E1,2.7105734E2,1.3424164E2,1.2315781E2,1.06660965E2,1.3161417E2,3.0948662E1,3.518436E1,1.4867401E2,1.22383316E2,9.491102E1,3.933062E1,2.9191357E1,9.396645E1,3.5715324E1,7.094564E1,9.450304E1,3.7111134E1,6.8343267E0,2.4114336E1,2.4912569E1,1.0271791E1,8.736457E1,6.130945E1,1.6007889E1,1.0637543E2,9.590599E0,8.532042E1,2.41037E1,1.5226918E1,1.2176331E1,1.7015026E1,8.831206E1,5.6543956E0,2.57729E1,9.942425E0,5.8885612E1,1.2060024E1,4.828626E1,4.621678E1,6.74732E0,3.0363813E1,2.6442375E0,4.190089E0,2.690654E0,2.1423681E1,2.0591396E1,4.3211727E0,4.3319798E0,5.939812E0,2.58965E1,6.146807E1,5.8127228E1,3.1822193E0,8.739378E0,7.2685103E0,9.263131E1,1.3744119E1],"tree_param":{"num_deleted":"0","num_feature":"5","num_nodes":"63","size_leaf_vector":"1"}},{"base_weights":[1.7540095E-3,4.83766E-1,-3.6745957E-1,5.997739E-1,4.7424503E-2,-1.6141158E-1,-6.965059E-1,8.227221E-1,4.0409386E-1,4.862846E-1,-1.9945182E-1,1.4415807E-1,-4.7354433E-1,-8.1117076E-1,-3.6496422E-1,9.8929584E-1,6.4250433E-1,-3.437393E-2,5.036738E-1,1.4209305E-1,1.0547447E0,-5.657247E-1,9.619959E-2,-4.719764E-2,4.936536E-1,-7.7001935E-1,-2.3315994E-1,-9.412539E-2,-8.608376E-1,-1.0385381E0,-1.9238786E-1,2.9667808E-2,1.05783045E-1,3.418396E-2,7.9057686E-2,-1.9037431E-2,8.642226E-2,3.194271E-2,7.224821E-2,7.437604E-2,-6.919258E-2,1.1385889E-1,2.117829E-2,5.9224464E-2,-6.757263E-2,-1.7503673E-2,8.22854E-2,-6.230278E-2,1.3283032E-2,6.86934E-2,2.2179708E-2,-9.00154E-2,-2.148768E-2,-1.2856543E-3,-5.0327867E-2,-3.6969263E-2,8.536079E-2,-9.099235E-2,-2.3926575E-2,-2.3470035E-2,-1.1845827E-1,9.96941E-3,-7.030605E-2],"categories":[],"categories_nodes":[],"categories_segments":[],"categories_sizes":[],"default_left":[0,0,0,0,0,0,0,0,0,0,0,0,0,0,0,0,0,0,0,0,0,0,0,0,0,0,0,0,0,0,0,0,0,0,0,0,0,0,0,0,0,0,0,0,0,0,0,0,0,0,0,0,0,0,0,0,0,0,0,0,0,0,0],"id":10,"left_children":[1,3,5,7,9,11,13,15,17,19,21,23,25,27,29,31,33,35,37,39,41,43,45,47,49,51,53,55,57,59,61,-1,-1,-1,-1,-1,-1,-1,-1,-1,-1,-1,-1,-1,-1,-1,-1,-1,-1,-1,-1,-1,-1,-1,-1,-1,-1,-1,-1,-1,-1,-1,-1],"loss_changes":[1.4542302E2,1.7912392E1,3.1259335E1,1.1878761E1,8.279706E0,2.7331152E1,6.4660873E0,3.263031E0,6.611805E0,5.2270713E0,5.3653564E0,9.734308E0,9.914471E0,4.5967026E0,5.324967E0,2.8018417E0,2.633936E0,4.2141924E0,4.7337437E0,9.683947E0,4.803667E-1,3.2090287E0,5.661305E0,9.904388E0,2.5516586E0,4.3567543E0,4.73338E0,2.8309298E0,3.5264053E0,8.3326817E-1,5.8964577E0,0E0,0E0,0E0,0E0,0E0,0E0,0E0,0E0,0E0,0E0,0E0,0E0,0E0,0E0,0E0,0E0,0E0,0E0,0E0,0E0,0E0,0E0,0E0,0E0,0E0,0E0,0E0,0E0,0E0,0E0,0E0,0E0],"parents":[2147483647,0,0,1,1,2,2,3,3,4,4,5,5,6,6,7,7,8,8,9,9,10,10,11,11,12,12,13,13,14,14,15,15,16,16,17,17,18,18,19,19,20,20,21,21,22,22,23,23,24,24,25,25,26,26,27,27,28,28,29,29,30,30],"right_children":[2,4,6,8,10,12,14,16,18,20,22,24,26,28,30,32,34,36,38,40,42,44,46,48,50,52,54,56,58,60,62,-1,-1,-1,-1,-1,-1,-1,-1,-1,-1,-1,-1,-1,-1,-1,-1,-1,-1,-1,-1,-1,-1,-1,-1,-1,-1,-1,-1,-1,-1,-1,-1],"split_conditions":[1.0033507E1,2.495231E2,1.6073788E1,5.2462354E0,4.532949E0,1.5578635E2,4.609127E0,1.3847652E2,1E0,4.348165E0,4.025974E0,4.425326E0,4.174588E0,3.4023823E1,1E0,1.6E1,5.3E1,4.819345E0,7.3E1,3.968758E0,1.29E2,3.531621E0,1.04E2,1E0,9.299492E1,1.17E2,1.3142201E1,1.9420013E1,1.4E2,9.406662E1,1.8750776E1,2.9667808E-2,1.05783045E-1,3.418396E-2,7.9057686E-2,-1.9037431E-2,8.642226E-2,3.194271E-2,7.224821E-2,7.437604E-2,-6.919258E-2,1.1385889E-1,2.117829E-2,5.9224464E-2,-6.757263E-2,-1.7503673E-2,8.22854E-2,-6.230278E-2,1.3283032E-2,6.86934E-2,2.2179708E-2,-9.00154E-2,-2.148768E-2,-1.2856543E-3,-5.0327867E-2,-3.6969263E-2,8.536079E-2,-9.099235E-2,-2.3926575E-2,-2.3470035E-2,-1.1845827E-1,9.96941E-3,-7.030605E-2],"split_indices":[0,1,0,0,0,1,2,1,4,2,2,2,2,1,4,3,3,2,3,2,3,2,3,4,1,3,0,0,3,1,0,0,0,0,0,0,0,0,0,0,0,0,0,0,0,0,0,0,0,0,0,0,0,0,0,0,0,0,0,0,0,0,0],"split_type":[0,0,0,0,0,0,0,0,0,0,0,0,0,0,0,0,0,0,0,0,0,0,0,0,0,0,0,0,0,0,0,0,0,0,0,0,0,0,0,0,0,0,0,0,0,0,0,0,0,0,0,0,0,0,0,0,0,0,0,0,0,0,0],"sum_hessian":[8.1514343E2,3.5342862E2,4.617148E2,2.789034E2,7.452521E1,2.8483954E2,1.7687526E2,1.2887039E2,1.50033E2,2.6481167E1,4.804404E1,1.4420491E2,1.4063463E2,1.3034747E2,4.6527794E1,6.463727E1,6.423312E1,2.7888758E1,1.2214425E2,1.7272789E1,9.208377E0,2.1051073E1,2.6992968E1,9.374347E1,5.046145E1,6.198407E1,7.865055E1,8.631323E0,1.2171615E2,8.46615E0,3.806164E1,6.2997966E0,5.8337475E1,2.2287144E1,4.1945984E1,2.4434893E1,3.4538648E0,6.7644394E1,5.449986E1,1.0096977E1,7.1758122E0,8.056361E0,1.1520165E0,1.4459397E0,1.9605133E1,2.0208801E1,6.784166E0,2.1741442E1,7.200202E1,2.8600601E1,2.1860846E1,4.9709793E1,1.2274276E1,4.38968E1,3.4753754E1,7.15951E0,1.4718126E0,1.1237772E2,9.338428E0,1.7025058E0,6.763644E0,2.4724888E1,1.3336755E1],"tree_param":{"num_deleted":"0","num_feature":"5","num_nodes":"63","size_leaf_vector":"1"}},{"base_weights":[2.1516418E-3,5.447094E-1,-2.8098848E-1,9.2180014E-1,4.0184158E-1,-9.385835E-3,-5.41003E-1,4.6949112E-1,9.563539E-1,-4.049721E-2,5.2356464E-1,2.6646134E-1,-3.4609285E-1,-4.0325263E-1,-8.9180386E-1,8.083817E-1,-7.673528E-2,8.359102E-1,1.12472E-1,-8.4647256E-1,1.2036902E-1,6.203271E-1,-7.124973E-3,-4.5246655E-1,3.4261093E-1,-5.182461E-1,8.453354E-2,-1.9497055E-1,-5.8162594E-1,-1.1986667E0,-7.445761E-1,1.0424792E-1,9.455521E-3,9.7404756E-2,5.53971E-2,-2.7852943E-2,-1.15246296E-1,3.513676E-2,-4.6578076E-2,2.5626687E-2,7.530902E-2,5.6700986E-2,-5.0143033E-2,-8.703991E-2,8.3898865E-2,6.0466155E-3,4.933618E-2,-6.835606E-2,1.7169716E-4,-4.3157812E-2,2.9143503E-2,-4.6861745E-2,1.414593E-2,-9.701407E-2,-4.032128E-2,-1.2690735E-1,6.674275E-3,-5.577254E-2,-1.1957051E-1],"categories":[],"categories_nodes":[],"categories_segments":[],"categories_sizes":[],"default_left":[0,0,0,0,0,0,0,0,0,0,0,0,0,0,0,0,0,0,0,0,0,0,0,0,0,0,0,0,0,0,0,0,0,0,0,0,0,0,0,0,0,0,0,0,0,0,0,0,0,0,0,0,0,0,0,0,0,0,0],"id":11,"left_children":[1,3,5,7,9,11,13,15,17,19,21,23,25,27,29,31,-1,33,-1,35,37,39,41,43,45,47,49,51,53,55,57,-1,-1,-1,-1,-1,-1,-1,-1,-1,-1,-1,-1,-1,-1,-1,-1,-1,-1,-1,-1,-1,-1,-1,-1,-1,-1,-1,-1],"loss_changes":[1.22924614E2,1.44121475E1,3.7127235E1,7.17247E-1,1.0831226E1,2.4072535E1,1.2620544E1,3.6635165E0,4.460945E-1,5.8395844E0,8.093002E0,7.9554825E0,8.695401E0,7.1201267E0,2.4919205E0,9.351139E-1,0E0,1.1641579E0,0E0,9.80237E-1,5.2771997E0,6.2468147E0,7.4587245E0,8.328487E0,5.474304E0,7.179701E0,3.7767172E0,8.473894E0,6.843811E0,2.1025429E0,3.8228836E0,0E0,0E0,0E0,0E0,0E0,0E0,0E0,0E0,0E0,0E0,0E0,0E0,0E0,0E0,0E0,0E0,0E0,0E0,0E0,0E0,0E0,0E0,0E0,0E0,0E0,0E0,0E0,0E0],"parents":[2147483647,0,0,1,1,2,2,3,3,4,4,5,5,6,6,7,7,8,8,9,9,10,10,11,11,12,12,13,13,14,14,15,15,17,17,19,19,20,20,21,21,22,22,23,23,24,24,25,25,26,26,27,27,28,28,29,29,30,30],"right_children":[2,4,6,8,10,12,14,16,18,20,22,24,26,28,30,32,-1,34,-1,36,38,40,42,44,46,48,50,52,54,56,58,-1,-1,-1,-1,-1,-1,-1,-1,-1,-1,-1,-1,-1,-1,-1,-1,-1,-1,-1,-1,-1,-1,-1,-1,-1,-1,-1,-1],"split_conditions":[8.256972E0,1.0328311E2,1.3933264E1,1.4E1,1E0,1.7407878E2,2.0826491E2,4.806336E0,4.451001E0,2.3E1,2.7570355E2,1.6E1,4.5404525E0,1.6560661E1,4.7E1,7.9376205E1,-7.673528E-2,5.6714463E0,1.12472E-1,1.2E1,6.225041E0,3.7E1,4.7445145E0,4.553941E0,3.9518387E0,1.17E2,3.4E1,8.4E1,3.982055E0,4.881329E0,1.8371538E1,1.0424792E-1,9.455521E-3,9.7404756E-2,5.53971E-2,-2.7852943E-2,-1.15246296E-1,3.513676E-2,-4.6578076E-2,2.5626687E-2,7.530902E-2,5.6700986E-2,-5.0143033E-2,-8.703991E-2,8.3898865E-2,6.0466155E-3,4.933618E-2,-6.835606E-2,1.7169716E-4,-4.3157812E-2,2.9143503E-2,-4.6861745E-2,1.414593E-2,-9.701407E-2,-4.032128E-2,-1.2690735E-1,6.674275E-3,-5.577254E-2,-1.1957051E-1],"split_indices":[0,1,0,3,4,1,1,2,2,3,1,3,2,0,3,1,0,0,0,3,0,3,0,2,2,3,3,3,2,2,0,0,0,0,0,0,0,0,0,0,0,0,0,0,0,0,0,0,0,0,0,0,0,0,0,0,0,0,0],"split_type":[0,0,0,0,0,0,0,0,0,0,0,0,0,0,0,0,0,0,0,0,0,0,0,0,0,0,0,0,0,0,0,0,0,0,0,0,0,0,0,0,0,0,0,0,0,0,0,0,0,0,0,0,0,0,0,0,0,0,0],"sum_hessian":[7.981907E2,2.7339084E2,5.247998E2,7.362089E1,1.9976996E2,2.571869E2,2.676129E2,6.2603326E0,6.736056E1,4.325383E1,1.5651613E2,1.4148442E2,1.1570248E2,1.937011E2,7.391183E1,5.185846E0,1.0744865E0,4.2746162E1,2.4614393E1,6.4875927E0,3.676624E1,1.3223615E2,2.4279985E1,1.3077547E1,1.2840688E2,8.25126E1,3.318987E1,9.032448E1,1.03376625E2,2.1648623E1,5.2263206E1,3.5584514E0,1.6273946E0,2.7042002E1,1.5704163E1,2.9403386E0,3.5472538E0,2.6660158E1,1.0106079E1,3.6119694E1,9.611645E1,1.1164895E1,1.311509E1,1.0126504E1,2.951043E0,4.5204117E1,8.320276E1,6.2368763E1,2.014384E1,9.187049E0,2.4002821E1,4.9593204E1,4.073127E1,3.113627E1,7.224036E1,2.0504847E1,1.1437753E0,3.8537746E1,1.372546E1],"tree_param":{"num_deleted":"0","num_feature":"5","num_nodes":"59","size_leaf_vector":"1"}},{"base_weights":[1.9061046E-3,3.0404517E-1,-4.35326E-1,5.8799714E-1,9.610194E-2,-2.9146904E-1,-7.6666194E-1,8.2069373E-1,3.519441E-1,3.7488875E-1,-1.2509783E-1,-6.563756E-2,-5.0151587E-1,-9.936231E-1,-5.609185E-1,-1.4582923E-1,8.5028464E-1,2.1104024E-1,9.422114E-1,4.013579E-2,5.365244E-1,-3.5770547E-1,1.03615604E-1,-3.5735926E-1,1.9837275E-1,-6.4969033E-1,-1.98849E-1,-3.7543267E-1,-1.1241904E0,4.056597E-1,-6.472668E-1,6.1739158E-2,-6.810989E-2,4.046365E-2,9.015612E-2,-2.68189E-2,3.566275E-2,1.003414E-1,2.9344639E-2,-6.301062E-2,1.666596E-2,4.0720113E-2,1.1161556E-1,-6.187327E-2,-7.771931E-3,-4.8548054E-2,2.5445053E-2,1.4954827E-2,-5.6542285E-2,5.3925287E-2,5.3578014E-3,-1.113259E-1,-5.5713434E-2,-9.617312E-2,-2.8814187E-3,8.568673E-3,-1.0027015E-1,-3.3028655E-2,-1.13930956E-1,-2.2725943E-2,8.984558E-2,-9.73126E-2,-4.6159305E-2],"categories":[],"categories_nodes":[],"categories_segments":[],"categories_sizes":[],"default_left":[0,0,0,0,0,0,0,0,0,0,0,0,0,0,0,0,0,0,0,0,0,0,0,0,0,0,0,0,0,0,0,0,0,0,0,0,0,0,0,0,0,0,0,0,0,0,0,0,0,0,0,0,0,0,0,0,0,0,0,0,0,0,0],"id":12,"left_children":[1,3,5,7,9,11,13,15,17,19,21,23,25,27,29,31,33,35,37,39,41,43,45,47,49,51,53,55,57,59,61,-1,-1,-1,-1,-1,-1,-1,-1,-1,-1,-1,-1,-1,-1,-1,-1,-1,-1,-1,-1,-1,-1,-1,-1,-1,-1,-1,-1,-1,-1,-1,-1],"loss_changes":[1.0351615E2,2.7304047E1,1.5039391E1,1.0460312E1,1.6616076E1,1.0634567E1,3.9406395E0,2.9209824E0,8.026462E0,6.4237957E0,8.047233E0,8.5059595E0,5.089449E0,3.1701546E0,4.6711044E0,1.9560677E0,1.8069229E0,5.755829E0,4.5082283E-1,3.4859655E0,5.561077E0,5.423856E0,6.938252E0,5.609768E0,2.840484E0,2.7126465E0,5.120158E0,2.764935E0,5.8727264E-2,1.7469771E0,2.5078716E0,0E0,0E0,0E0,0E0,0E0,0E0,0E0,0E0,0E0,0E0,0E0,0E0,0E0,0E0,0E0,0E0,0E0,0E0,0E0,0E0,0E0,0E0,0E0,0E0,0E0,0E0,0E0,0E0,0E0,0E0,0E0,0E0],"parents":[2147483647,0,0,1,1,2,2,3,3,4,4,5,5,6,6,7,7,8,8,9,9,10,10,11,11,12,12,13,13,14,14,15,15,16,16,17,17,18,18,19,19,20,20,21,21,22,22,23,23,24,24,25,25,26,26,27,27,28,28,29,29,30,30],"right_children":[2,4,6,8,10,12,14,16,18,20,22,24,26,28,30,32,34,36,38,40,42,44,46,48,50,52,54,56,58,60,62,-1,-1,-1,-1,-1,-1,-1,-1,-1,-1,-1,-1,-1,-1,-1,-1,-1,-1,-1,-1,-1,-1,-1,-1,-1,-1,-1,-1,-1,-1,-1,-1],"split_conditions":[1.2810497E1,6.5015326E0,2.0277379E2,1.7191263E2,1.4620128E2,1.6142841E1,4.174588E0,3.545288E0,4.704014E0,3.8986197E0,4.216836E0,7.6E1,1E2,3.6362572E0,1.3142201E1,8.338544E1,1.6E1,1E0,5.779521E0,2.4E1,1.18E2,7.7E1,1E0,6.859171E1,7.9376205E1,1.5E1,1E0,1.6451288E1,2.0760632E2,4.499458E0,5.4E1,6.1739158E-2,-6.810989E-2,4.046365E-2,9.015612E-2,-2.68189E-2,3.566275E-2,1.003414E-1,2.9344639E-2,-6.301062E-2,1.666596E-2,4.0720113E-2,1.1161556E-1,-6.187327E-2,-7.771931E-3,-4.8548054E-2,2.5445053E-2,1.4954827E-2,-5.6542285E-2,5.3925287E-2,5.3578014E-3,-1.113259E-1,-5.5713434E-2,-9.617312E-2,-2.8814187E-3,8.568673E-3,-1.0027015E-1,-3.3028655E-2,-1.13930956E-1,-2.2725943E-2,8.984558E-2,-9.73126E-2,-4.6159305E-2],"split_indices":[0,0,1,1,1,0,2,2,2,2,2,3,3,2,0,1,3,4,0,3,3,3,4,1,1,3,4,0,1,2,3,0,0,0,0,0,0,0,0,0,0,0,0,0,0,0,0,0,0,0,0,0,0,0,0,0,0,0,0,0,0,0,0],"split_type":[0,0,0,0,0,0,0,0,0,0,0,0,0,0,0,0,0,0,0,0,0,0,0,0,0,0,0,0,0,0,0,0,0,0,0,0,0,0,0,0,0,0,0,0,0,0,0,0,0,0,0,0,0,0,0,0,0,0,0,0,0,0,0],"sum_hessian":[7.815887E2,4.6237784E2,3.1921082E2,1.9469246E2,2.676854E2,2.2388553E2,9.532529E1,9.6796036E1,9.7896416E1,1.1811968E2,1.495657E2,1.0852142E2,1.15364105E2,4.3504673E1,5.1820614E1,2.7587612E0,9.403728E1,8.012674E1,1.7769676E1,3.8868988E1,7.9250694E1,7.387196E1,7.569375E1,5.1387043E1,5.7134377E1,7.667857E1,3.8685535E1,8.262074E0,3.52426E1,3.9464386E0,4.7874176E1,1.073985E0,1.6847762E0,1.0620977E1,8.34163E1,1.8473953E1,6.165279E1,1.5738316E1,2.0313604E0,5.5402355E0,3.3328754E1,6.61862E1,1.3064488E1,3.760421E1,3.6267754E1,1.4977903E1,6.0715843E1,1.5035976E1,3.6351067E1,1.6221342E1,4.0913036E1,1.0926256E1,6.575232E1,6.2022567E0,3.2483276E1,5.259267E0,3.0028074E0,1.0855577E0,3.4157043E1,1.9634861E0,1.9829525E0,1.5837742E1,3.2036434E1],"tree_param":{"num_deleted":"0","num_feature":"5","num_nodes":"63","size_leaf_vector":"1"}},{"base_weights":[1.5739758E-3,4.792145E-1,-2.3979689E-1,9.299263E-1,3.6428747E-1,-4.0253665E-2,-4.9603817E-1,9.705713E-2,3.2211062E-1,-3.7577942E-2,4.7758603E-1,1.1483461E-1,-4.523675E-1,-1.867345E-1,-6.4836913E-1,-7.985327E-2,8.5539885E-2,-1.891467E-1,6.073056E-1,7.1279514E-1,2.7397692E-1,-2.87225E-1,2.2415923E-1,-7.00897E-1,1.0795211E-1,-6.872559E-1,-5.918421E-2,-9.6949935E-1,-5.5129176E-1,-7.0373677E-3,-1.3922814E-1,8.595955E-2,-5.5997025E-2,6.084744E-2,1.05163746E-1,4.275273E-2,-4.2444073E-2,-5.3247806E-2,5.8121732E-3,1.0522583E-3,4.597123E-2,-8.122154E-2,6.7223585E-3,-8.960759E-2,2.5111059E-2,-9.052082E-2,2.8199637E-2,-6.0863853E-2,5.1048878E-3,-1.0317855E-1,9.684776E-3,-4.5231603E-2,-9.233975E-2],"categories":[],"categories_nodes":[],"categories_segments":[],"categories_sizes":[],"default_left":[0,0,0,0,0,0,0,0,0,0,0,0,0,0,0,0,0,0,0,0,0,0,0,0,0,0,0,0,0,0,0,0,0,0,0,0,0,0,0,0,0,0,0,0,0,0,0,0,0,0,0,0,0],"id":13,"left_children":[1,3,5,7,9,11,13,-1,15,17,19,21,23,25,27,-1,-1,29,31,33,35,37,39,41,43,45,47,49,51,-1,-1,-1,-1,-1,-1,-1,-1,-1,-1,-1,-1,-1,-1,-1,-1,-1,-1,-1,-1,-1,-1,-1,-1],"loss_changes":[8.853976E1,1.301553E1,2.6066032E1,9.655342E-1,9.446085E0,1.845339E1,1.0398552E1,0E0,3.5155845E0,4.6568255E0,7.5440407E0,9.294266E0,1.106638E1,4.75249E0,4.1164246E0,0E0,0E0,5.3875546E0,3.155491E0,1.9885712E0,9.645065E0,3.8702145E0,8.331405E0,4.740965E0,3.8352306E0,3.4563446E0,3.721238E0,2.3125076E0,3.8868332E0,0E0,0E0,0E0,0E0,0E0,0E0,0E0,0E0,0E0,0E0,0E0,0E0,0E0,0E0,0E0,0E0,0E0,0E0,0E0,0E0,0E0,0E0,0E0,0E0],"parents":[2147483647,0,0,1,1,2,2,3,3,4,4,5,5,6,6,8,8,9,9,10,10,11,11,12,12,13,13,14,14,17,17,18,18,19,19,20,20,21,21,22,22,23,23,24,24,25,25,26,26,27,27,28,28],"right_children":[2,4,6,8,10,12,14,-1,16,18,20,22,24,26,28,-1,-1,30,32,34,36,38,40,42,44,46,48,50,52,-1,-1,-1,-1,-1,-1,-1,-1,-1,-1,-1,-1,-1,-1,-1,-1,-1,-1,-1,-1,-1,-1,-1,-1],"split_conditions":[8.256972E0,8.226226E1,1.4715131E1,4.9117107E0,1E0,2.1964943E2,9.627818E1,9.705713E-2,2.2E1,4.71718E0,4.532949E0,1E0,4.5404525E0,3.8500931E0,1E0,-7.985327E-2,8.5539885E-2,4.6500673E0,6.585249E0,4.6835074E0,2.708718E2,4.348165E0,7.7E1,1.34E2,2.2612227E2,1.18E2,1E0,4.9423685E0,1.8811836E1,-7.0373677E-3,-1.3922814E-1,8.595955E-2,-5.5997025E-2,6.084744E-2,1.05163746E-1,4.275273E-2,-4.2444073E-2,-5.3247806E-2,5.8121732E-3,1.0522583E-3,4.597123E-2,-8.122154E-2,6.7223585E-3,-8.960759E-2,2.5111059E-2,-9.052082E-2,2.8199637E-2,-6.0863853E-2,5.1048878E-3,-1.0317855E-1,9.684776E-3,-4.5231603E-2,-9.233975E-2],"split_indices":[0,1,0,2,4,1,1,0,3,2,0,4,2,2,4,0,0,2,0,2,1,2,3,3,1,3,4,2,0,0,0,0,0,0,0,0,0,0,0,0,0,0,0,0,0,0,0,0,0,0,0,0,0],"split_type":[0,0,0,0,0,0,0,0,0,0,0,0,0,0,0,0,0,0,0,0,0,0,0,0,0,0,0,0,0,0,0,0,0,0,0,0,0,0,0,0,0,0,0,0,0,0,0,0,0,0,0,0,0],"sum_hessian":[7.659875E2,2.5680988E2,5.091776E2,5.073802E1,2.0607185E2,2.869093E2,2.2226831E2,4.6998398E1,3.7396219E0,4.5467777E1,1.6060408E2,2.0898473E2,7.792458E1,7.4078964E1,1.4818936E2,1.0454193E0,2.6942027E0,3.7387245E1,8.080531E0,7.3359E1,8.724508E1,4.4329243E1,1.6465547E2,5.3807438E1,2.4117147E1,1.4152981E1,5.992598E1,3.231268E1,1.1587667E2,3.49914E1,2.3958466E0,6.861175E0,1.2193565E0,5.8227882E1,1.5131115E1,7.183884E1,1.5406241E1,2.5604189E1,1.8725054E1,8.689241E1,7.776306E1,4.694641E1,6.8610272E0,2.353285E0,2.1763863E1,1.1608659E1,2.5443215E0,9.258052E0,5.0667927E1,3.0560057E1,1.7526234E0,9.328066E1,2.2596014E1],"tree_param":{"num_deleted":"0","num_feature":"5","num_nodes":"53","size_leaf_vector":"1"}},{"base_weights":[1.1866651E-3,3.5554206E-1,-2.7791038E-1,5.999421E-1,2.036386E-1,-1.5192048E-1,-6.442915E-1,8.864951E-1,4.214006E-1,5.223309E-1,8.850164E-2,1.4968838E-1,-3.1888303E-1,-8.412516E-1,-2.5691536E-1,2.6943165E-1,9.570662E-1,2.8806332E-1,9.3101877E-1,3.6110374E-1,9.9548185E-1,-2.5436142E-1,2.1219383E-1,2.1261247E-3,6.13637E-1,-5.9507483E-1,-1.777775E-1,-9.263734E-1,-2.4653988E-1,-7.888586E-2,-1.088405E-1,7.58108E-2,-7.022606E-2,4.7285456E-2,9.890247E-2,4.7842197E-2,4.234324E-3,1.2321923E-2,9.792905E-2,6.0666163E-2,8.027635E-3,1.04946055E-1,2.1884503E-2,-1.19641185E-1,-1.3289017E-2,3.09017E-2,-2.6989702E-2,-5.096763E-2,1.6768591E-2,-1.1118495E-2,8.4664695E-2,-3.5784457E-2,-9.997473E-2,-3.6616098E-2,5.904439E-3,-1.9941246E-2,-9.624945E-2,1.0342193E-2,-1.0998135E-1,-2.0399844E-2,1.3941294E-1],"categories":[],"categories_nodes":[],"categories_segments":[],"categories_sizes":[],"default_left":[0,0,0,0,0,0,0,0,0,0,0,0,0,0,0,0,0,0,0,0,0,0,0,0,0,0,0,0,0,0,0,0,0,0,0,0,0,0,0,0,0,0,0,0,0,0,0,0,0,0,0,0,0,0,0,0,0,0,0,0,0],"id":14,"left_children":[1,3,5,7,9,11,13,15,17,19,21,23,25,27,29,31,33,35,37,39,41,43,45,47,49,51,53,55,57,59,-1,-1,-1,-1,-1,-1,-1,-1,-1,-1,-1,-1,-1,-1,-1,-1,-1,-1,-1,-1,-1,-1,-1,-1,-1,-1,-1,-1,-1,-1,-1],"loss_changes":[7.449366E1,1.2198471E1,1.9352196E1,6.1081505E0,7.519045E0,1.5902689E1,7.9866714E0,1.8205566E0,5.1653633E0,3.7991533E0,6.528273E0,7.7258005E0,7.804804E0,3.3573685E0,5.491583E0,3.5192137E0,1.8905258E-1,3.012065E0,5.0849056E-1,2.8633752E0,3.2728863E-1,4.5245E0,5.3455243E0,7.4264493E0,4.69345E0,6.1904545E0,6.078787E0,1.4256363E0,3.1690345E0,6.2023144E0,0E0,0E0,0E0,0E0,0E0,0E0,0E0,0E0,0E0,0E0,0E0,0E0,0E0,0E0,0E0,0E0,0E0,0E0,0E0,0E0,0E0,0E0,0E0,0E0,0E0,0E0,0E0,0E0,0E0,0E0,0E0],"parents":[2147483647,0,0,1,1,2,2,3,3,4,4,5,5,6,6,7,7,8,8,9,9,10,10,11,11,12,12,13,13,14,14,15,15,16,16,17,17,18,18,19,19,20,20,21,21,22,22,23,23,24,24,25,25,26,26,27,27,28,28,29,29],"right_children":[2,4,6,8,10,12,14,16,18,20,22,24,26,28,30,32,34,36,38,40,42,44,46,48,50,52,54,56,58,60,-1,-1,-1,-1,-1,-1,-1,-1,-1,-1,-1,-1,-1,-1,-1,-1,-1,-1,-1,-1,-1,-1,-1,-1,-1,-1,-1,-1,-1,-1,-1],"split_conditions":[1.0361087E1,4.8949347E0,2.1639311E2,1.3847652E2,1.0328311E2,1.361891E1,4.499458E0,1.6E1,4.704014E0,1.05E2,3.6E1,1.14E2,4.002574E0,1.34E2,1.8371538E1,4.641666E0,3.6165087E0,3.0592752E0,1.4422363E2,8.256972E0,1.45E2,1.2488246E2,2.7969757E2,1E0,1.1443845E1,1.7424406E1,8.6E1,2.1964943E2,2.8591928E2,1.7986925E1,-1.088405E-1,7.58108E-2,-7.022606E-2,4.7285456E-2,9.890247E-2,4.7842197E-2,4.234324E-3,1.2321923E-2,9.792905E-2,6.0666163E-2,8.027635E-3,1.04946055E-1,2.1884503E-2,-1.19641185E-1,-1.3289017E-2,3.09017E-2,-2.6989702E-2,-5.096763E-2,1.6768591E-2,-1.1118495E-2,8.4664695E-2,-3.5784457E-2,-9.997473E-2,-3.6616098E-2,5.904439E-3,-1.9941246E-2,-9.624945E-2,1.0342193E-2,-1.0998135E-1,-2.0399844E-2,1.3941294E-1],"split_indices":[0,0,1,1,1,0,2,3,2,3,3,3,2,3,0,2,2,0,1,0,3,1,1,4,0,0,3,1,1,0,0,0,0,0,0,0,0,0,0,0,0,0,0,0,0,0,0,0,0,0,0,0,0,0,0,0,0,0,0,0,0],"split_type":[0,0,0,0,0,0,0,0,0,0,0,0,0,0,0,0,0,0,0,0,0,0,0,0,0,0,0,0,0,0,0,0,0,0,0,0,0,0,0,0,0,0,0,0,0,0,0,0,0,0,0,0,0,0,0,0,0,0,0,0,0],"sum_hessian":[7.512265E2,3.3086722E2,4.2035925E2,1.2569114E2,2.0517607E2,3.138487E2,1.06510574E2,4.672842E1,7.896272E1,5.3514496E1,1.5166158E2,1.1186823E2,2.0198047E2,6.98327E1,3.6677868E1,5.2901316E0,4.143829E1,6.3827934E1,1.5134788E1,4.1228867E1,1.2285631E1,3.992814E1,1.1173343E2,8.5635735E1,2.6232492E1,6.721009E1,1.3477037E2,6.060111E1,9.231598E0,3.1111488E1,5.5663805E0,3.666173E0,1.6239583E0,3.54364E0,3.789465E1,3.543191E1,2.839602E1,1.0537367E0,1.4081051E1,2.1376663E1,1.9852203E1,1.1158773E1,1.1268575E0,3.5496986E0,3.637844E1,9.334502E1,1.8388414E1,2.0422926E1,6.5212814E1,6.508718E0,1.9723774E1,4.3558918E1,2.365117E1,7.475737E1,6.0013E1,3.177266E0,5.742384E1,7.169778E0,2.0618205E0,2.9469929E1,1.6415591E0],"tree_param":{"num_deleted":"0","num_feature":"5","num_nodes":"61","size_leaf_vector":"1"}},{"base_weights":[1.2873947E-3,4.1881052E-1,-2.0301008E-1,8.680239E-1,3.1238708E-1,-8.95771E-2,-5.4721487E-1,9.1056716E-1,2.6901066E-1,-6.563568E-2,4.2251515E-1,6.1472945E-2,-3.5021886E-1,-8.1474453E-1,-2.8433004E-1,1.0168741E-1,7.051113E-1,-7.178456E-2,8.05537E-2,-7.2254646E-1,6.636677E-2,7.394668E-1,2.901803E-1,-2.7826962E-1,1.526623E-1,-7.08786E-1,-2.5782198E-1,-8.752247E-1,-2.4333608E-1,-8.739689E-1,-1.2929396E-1,1.2102241E-2,7.719606E-2,4.2179283E-2,-9.6964784E-2,2.3371385E-2,-3.420869E-2,5.7594188E-2,9.396106E-2,-5.4057628E-2,3.7713487E-2,3.999004E-2,-3.5223953E-2,3.017032E-2,-7.793173E-3,-7.8006394E-2,4.862321E-2,-4.0591728E-2,5.0859484E-3,-7.27965E-2,-1.16013445E-1,1.6976153E-2,-9.3248695E-2,-3.19154E-3,-9.804432E-2,-5.972856E-2,9.953485E-3],"categories":[],"categories_nodes":[],"categories_segments":[],"categories_sizes":[],"default_left":[0,0,0,0,0,0,0,0,0,0,0,0,0,0,0,0,0,0,0,0,0,0,0,0,0,0,0,0,0,0,0,0,0,0,0,0,0,0,0,0,0,0,0,0,0,0,0,0,0,0,0,0,0,0,0,0,0],"id":15,"left_children":[1,3,5,7,9,11,13,15,17,19,21,23,25,27,29,-1,31,-1,-1,33,35,37,39,41,43,45,47,49,51,53,55,-1,-1,-1,-1,-1,-1,-1,-1,-1,-1,-1,-1,-1,-1,-1,-1,-1,-1,-1,-1,-1,-1,-1,-1,-1,-1],"loss_changes":[6.312833E1,1.1353142E1,1.9353413E1,9.275551E-1,8.27656E0,1.4783588E1,8.417305E0,2.1210861E-1,2.9451742E0,3.9992294E0,6.2269344E0,7.423249E0,4.380041E0,1.8748779E0,5.6976686E0,0E0,6.0030556E-1,0E0,0E0,2.5886931E0,2.7360587E0,9.181652E-1,8.149062E0,2.68756E0,6.500793E0,2.7341099E0,5.098396E0,1.4314308E0,2.1988075E0,1.1396132E0,5.574967E0,0E0,0E0,0E0,0E0,0E0,0E0,0E0,0E0,0E0,0E0,0E0,0E0,0E0,0E0,0E0,0E0,0E0,0E0,0E0,0E0,0E0,0E0,0E0,0E0,0E0,0E0],"parents":[2147483647,0,0,1,1,2,2,3,3,4,4,5,5,6,6,7,7,8,8,9,9,10,10,11,11,12,12,13,13,14,14,16,16,19,19,20,20,21,21,22,22,23,23,24,24,25,25,26,26,27,27,28,28,29,29,30,30],"right_children":[2,4,6,8,10,12,14,16,18,20,22,24,26,28,30,-1,32,-1,-1,34,36,38,40,42,44,46,48,50,52,54,56,-1,-1,-1,-1,-1,-1,-1,-1,-1,-1,-1,-1,-1,-1,-1,-1,-1,-1,-1,-1,-1,-1,-1,-1,-1,-1],"split_conditions":[8.256972E0,8.226226E1,1.676582E1,4.9117107E0,1E0,1.8648068E2,4.2776113E0,5.6714463E0,2.2E1,2.3E1,3.0592752E0,1E0,3E1,1.39E2,1E0,1.0168741E-1,5.9795876E0,-7.178456E-2,8.05537E-2,9E0,6.225041E0,4.348165E0,3.6112387E0,9.119652E0,1.3689041E1,4.916732E0,4.490004E0,2.0139658E2,4.0418644E0,4.407607E0,5.5E1,1.2102241E-2,7.719606E-2,4.2179283E-2,-9.6964784E-2,2.3371385E-2,-3.420869E-2,5.7594188E-2,9.396106E-2,-5.4057628E-2,3.7713487E-2,3.999004E-2,-3.5223953E-2,3.017032E-2,-7.793173E-3,-7.8006394E-2,4.862321E-2,-4.0591728E-2,5.0859484E-3,-7.27965E-2,-1.16013445E-1,1.6976153E-2,-9.3248695E-2,-3.19154E-3,-9.804432E-2,-5.972856E-2,9.953485E-3],"split_indices":[0,1,0,2,4,1,2,0,3,3,0,4,3,3,4,0,0,0,0,3,0,2,2,0,0,2,2,1,2,2,3,0,0,0,0,0,0,0,0,0,0,0,0,0,0,0,0,0,0,0,0,0,0,0,0,0,0],"split_type":[0,0,0,0,0,0,0,0,0,0,0,0,0,0,0,0,0,0,0,0,0,0,0,0,0,0,0,0,0,0,0,0,0,0,0,0,0,0,0,0,0,0,0,0,0,0,0,0,0,0,0,0,0,0,0,0,0],"sum_hessian":[7.380868E2,2.4215143E2,4.9593533E2,4.5009605E1,1.9714183E2,3.7395755E2,1.2197778E2,4.153928E1,3.470326E0,4.4566853E1,1.5257498E2,2.3723601E2,1.3672154E2,5.9414387E1,6.25634E1,2.4772264E1,1.6767015E1,1.1032041E0,2.3671217E0,6.708456E0,3.7858395E1,4.3588795E1,1.0898618E2,4.9767303E1,1.874687E2,2.6645704E1,1.10075836E2,5.324683E1,6.167557E0,1.2059828E1,5.050357E1,2.0105362E0,1.4756478E1,1.0657853E0,5.6426706E0,2.7158943E1,1.0699451E1,2.6122984E1,1.746581E1,9.8323145E0,9.915386E1,4.4610744E0,4.530623E1,1.1368305E2,7.378566E1,2.5473547E1,1.1721565E0,7.4174385E1,3.590145E1,3.7446922E1,1.5799908E1,4.327306E0,1.8402507E0,1.4996405E0,1.0560187E1,1.6056095E1,3.4447475E1],"tree_param":{"num_deleted":"0","num_feature":"5","num_nodes":"57","size_leaf_vector":"1"}},{"base_weights":[1.0541822E-3,2.2727698E-1,-3.2204166E-1,4.594358E-1,7.2853595E-2,5.3084426E-2,-4.2077345E-1,6.9890743E-1,2.4184151E-1,3.7228727E-1,-5.0613552E-2,2.8520826E-1,-2.7835476E-1,-6.0041314E-1,-2.1849206E-1,-2.2126988E-1,7.3201954E-1,1.1852397E-1,8.256172E-1,2.2210313E-1,8.7943834E-1,-7.341935E-1,2.973683E-3,7.443767E-2,8.9738584E-1,-7.3897755E-1,-1.08181626E-1,-1.0483235E0,-5.09676E-1,3.5170743E-1,-3.0359006E-1,2.4646027E-2,-6.109345E-2,2.9893015E-2,7.885248E-2,-2.4600793E-2,2.396993E-2,2.4505509E-2,8.964122E-2,8.782719E-3,6.384174E-2,9.722792E-2,-1.2008461E-2,2.8342173E-2,-8.456759E-2,6.5929517E-3,-3.9692428E-2,1.927176E-2,-8.9379385E-2,-9.032271E-3,1.1087086E-1,-2.6954059E-2,-8.718645E-2,6.923741E-2,-3.1298198E-2,-1.2781121E-2,-1.1255344E-1,-3.7843075E-2,-8.484294E-2,-1.2672699E-2,9.8474585E-2,-2.1236265E-2,-9.402551E-2],"categories":[],"categories_nodes":[],"categories_segments":[],"categories_sizes":[],"default_left":[0,0,0,0,0,0,0,0,0,0,0,0,0,0,0,0,0,0,0,0,0,0,0,0,0,0,0,0,0,0,0,0,0,0,0,0,0,0,0,0,0,0,0,0,0,0,0,0,0,0,0,0,0,0,0,0,0,0,0,0,0,0,0],"id":16,"left_children":[1,3,5,7,9,11,13,15,17,19,21,23,25,27,29,31,33,35,37,39,41,43,45,47,49,51,53,55,57,59,61,-1,-1,-1,-1,-1,-1,-1,-1,-1,-1,-1,-1,-1,-1,-1,-1,-1,-1,-1,-1,-1,-1,-1,-1,-1,-1,-1,-1,-1,-1,-1,-1],"loss_changes":[5.3184208E1,1.5309786E1,1.1120806E1,8.729393E0,9.564771E0,4.951245E0,8.493065E0,2.6229248E0,6.453288E0,5.5554876E0,6.7314086E0,4.8022213E0,2.0042136E0,4.551277E0,5.599798E0,8.018444E-1,1.6778717E0,3.4292235E0,4.2573738E-1,3.2751198E0,1.6862011E0,1.7550964E0,4.339916E0,3.5118968E0,2.098545E0,2.0175982E-1,3.592038E0,1.2870369E0,4.391592E0,4.717553E0,5.5527344E0,0E0,0E0,0E0,0E0,0E0,0E0,0E0,0E0,0E0,0E0,0E0,0E0,0E0,0E0,0E0,0E0,0E0,0E0,0E0,0E0,0E0,0E0,0E0,0E0,0E0,0E0,0E0,0E0,0E0,0E0,0E0,0E0],"parents":[2147483647,0,0,1,1,2,2,3,3,4,4,5,5,6,6,7,7,8,8,9,9,10,10,11,11,12,12,13,13,14,14,15,15,16,16,17,17,18,18,19,19,20,20,21,21,22,22,23,23,24,24,25,25,26,26,27,27,28,28,29,29,30,30],"right_children":[2,4,6,8,10,12,14,16,18,20,22,24,26,28,30,32,34,36,38,40,42,44,46,48,50,52,54,56,58,60,62,-1,-1,-1,-1,-1,-1,-1,-1,-1,-1,-1,-1,-1,-1,-1,-1,-1,-1,-1,-1,-1,-1,-1,-1,-1,-1,-1,-1,-1,-1,-1,-1],"split_conditions":[1.2810497E1,6.5015326E0,6.859171E1,1.7191263E2,1.0636052E2,1.676582E1,4.2899632E0,3.545288E0,4.704014E0,1.05E2,1E1,5.5147552E1,3.9927635E0,2.7E1,9.406662E1,1.2273885E2,1.6E1,1E0,1.8E1,4.6011868E0,9.9459206E1,1.1617361E2,2.7969757E2,4.9738426E1,3.8106272E0,3.4023823E1,4.16204E0,1.3549771E1,2.229136E2,8.6871864E1,1.8961746E1,2.4646027E-2,-6.109345E-2,2.9893015E-2,7.885248E-2,-2.4600793E-2,2.396993E-2,2.4505509E-2,8.964122E-2,8.782719E-3,6.384174E-2,9.722792E-2,-1.2008461E-2,2.8342173E-2,-8.456759E-2,6.5929517E-3,-3.9692428E-2,1.927176E-2,-8.9379385E-2,-9.032271E-3,1.1087086E-1,-2.6954059E-2,-8.718645E-2,6.923741E-2,-3.1298198E-2,-1.2781121E-2,-1.1255344E-1,-3.7843075E-2,-8.484294E-2,-1.2672699E-2,9.8474585E-2,-2.1236265E-2,-9.402551E-2],"split_indices":[0,0,1,1,1,0,2,2,2,3,3,1,2,3,1,1,3,4,3,2,1,1,1,1,2,1,2,0,1,1,0,0,0,0,0,0,0,0,0,0,0,0,0,0,0,0,0,0,0,0,0,0,0,0,0,0,0,0,0,0,0,0,0],"split_type":[0,0,0,0,0,0,0,0,0,0,0,0,0,0,0,0,0,0,0,0,0,0,0,0,0,0,0,0,0,0,0,0,0,0,0,0,0,0,0,0,0,0,0,0,0,0,0,0,0,0,0,0,0,0,0,0,0,0,0,0,0,0,0],"sum_hessian":[7.256359E2,4.2697583E2,2.9866013E2,1.6976994E2,2.5720587E2,6.2324368E1,2.3633577E2,7.976893E1,9.000102E1,7.450365E1,1.8270222E2,3.6735855E1,2.5588512E1,1.2413085E2,1.1220491E2,2.5733614E0,7.7195564E1,7.5298004E1,1.470302E1,5.8590897E1,1.5912752E1,1.2357985E1,1.7034424E2,2.8161533E1,8.574322E0,6.001423E0,1.958709E1,1.9132544E1,1.04998314E2,1.4164258E1,9.804065E1,1.3365515E0,1.2368098E0,9.635303E0,6.7560265E1,1.8528502E1,5.67695E1,2.0829594E0,1.262006E1,4.5217598E1,1.3373299E1,1.4585255E1,1.3274974E0,1.067896E0,1.1290089E1,1.4789612E2,2.2448116E1,2.5809574E1,2.3519588E0,1.6120925E0,6.9622293E0,1.9921807E0,4.0092425E0,3.5050952E0,1.6081995E1,1.6861013E0,1.7446442E1,7.720389E1,2.779442E1,8.522773E0,5.6414843E0,8.691955E1,1.1121102E1],"tree_param":{"num_deleted":"0","num_feature":"5","num_nodes":"63","size_leaf_vector":"1"}},{"base_weights":[9.952275E-4,3.6598903E-1,-1.7276493E-1,8.152816E-1,2.6640722E-1,-7.4621305E-2,-4.80719E-1,8.608306E-1,2.0892167E-1,-7.3479995E-2,3.6881188E-1,2.6925983E-2,-3.754821E-1,-7.4327093E-1,-2.3568814E-1,9.793258E-2,6.467678E-1,-6.981109E-2,7.615195E-2,-1.9395599E-1,4.9670976E-1,4.5296273E-1,-8.8931374E-2,-3.0334607E-1,1.1868187E-1,-5.660521E-1,3.3840004E-2,-6.431712E-1,-1.18238606E-1,-8.1082517E-1,-8.9054085E-2,1.5575674E-2,7.438237E-2,-8.33121E-3,-1.2445495E-1,7.5767435E-2,-5.2526873E-2,1.210644E-2,5.8259696E-2,3.715278E-2,-4.2160463E-2,-4.7481176E-2,2.1355874E-3,-5.2957158E-3,3.034902E-2,-6.578808E-2,-1.1836792E-3,-4.220655E-2,2.5148427E-2,-8.5734695E-2,-1.6037973E-2,-1.8827284E-3,-9.155874E-2,-5.3036153E-2,1.2065463E-2],"categories":[],"categories_nodes":[],"categories_segments":[],"categories_sizes":[],"default_left":[0,0,0,0,0,0,0,0,0,0,0,0,0,0,0,0,0,0,0,0,0,0,0,0,0,0,0,0,0,0,0,0,0,0,0,0,0,0,0,0,0,0,0,0,0,0,0,0,0,0,0,0,0,0,0],"id":17,"left_children":[1,3,5,7,9,11,13,15,17,19,21,23,25,27,29,-1,31,-1,-1,33,35,37,39,41,43,45,47,49,-1,51,53,-1,-1,-1,-1,-1,-1,-1,-1,-1,-1,-1,-1,-1,-1,-1,-1,-1,-1,-1,-1,-1,-1,-1,-1],"loss_changes":[4.5381298E1,1.0108248E1,1.4615819E1,9.63171E-1,6.6540146E0,1.1277554E1,7.350153E0,3.34877E-1,2.6428053E0,3.1818435E0,5.6825867E0,8.420233E0,7.2839756E0,1.701189E0,5.154035E0,0E0,6.7267084E-1,0E0,0E0,4.290334E0,2.5624733E0,5.2601624E0,3.7690887E0,3.374774E0,6.906798E0,3.2291908E0,3.1354494E0,4.80513E0,0E0,1.0171185E0,4.7379217E0,0E0,0E0,0E0,0E0,0E0,0E0,0E0,0E0,0E0,0E0,0E0,0E0,0E0,0E0,0E0,0E0,0E0,0E0,0E0,0E0,0E0,0E0,0E0,0E0],"parents":[2147483647,0,0,1,1,2,2,3,3,4,4,5,5,6,6,7,7,8,8,9,9,10,10,11,11,12,12,13,13,14,14,16,16,19,19,20,20,21,21,22,22,23,23,24,24,25,25,26,26,27,27,29,29,30,30],"right_children":[2,4,6,8,10,12,14,16,18,20,22,24,26,28,30,-1,32,-1,-1,34,36,38,40,42,44,46,48,50,-1,52,54,-1,-1,-1,-1,-1,-1,-1,-1,-1,-1,-1,-1,-1,-1,-1,-1,-1,-1,-1,-1,-1,-1,-1,-1],"split_conditions":[8.256972E0,8.226226E1,1.676582E1,4.9117107E0,1E0,2.1964943E2,4.2776113E0,5.6714463E0,2.2E1,4.71718E0,2.7570355E2,1E0,4.505995E0,4.16204E0,1E0,9.793258E-2,1E0,-6.981109E-2,7.615195E-2,4.6500673E0,6.585249E0,3.7E1,4.7445145E0,4.425326E0,7.6E1,1.34E2,3.9E1,3.982055E0,-1.18238606E-1,4.407607E0,5.5E1,1.5575674E-2,7.438237E-2,-8.33121E-3,-1.2445495E-1,7.5767435E-2,-5.2526873E-2,1.210644E-2,5.8259696E-2,3.715278E-2,-4.2160463E-2,-4.7481176E-2,2.1355874E-3,-5.2957158E-3,3.034902E-2,-6.578808E-2,-1.1836792E-3,-4.220655E-2,2.5148427E-2,-8.5734695E-2,-1.6037973E-2,-1.8827284E-3,-9.155874E-2,-5.3036153E-2,1.2065463E-2],"split_indices":[0,1,0,2,4,1,2,0,3,2,1,4,2,2,4,0,4,0,0,2,0,3,0,2,3,3,3,2,0,2,3,0,0,0,0,0,0,0,0,0,0,0,0,0,0,0,0,0,0,0,0,0,0,0,0],"split_type":[0,0,0,0,0,0,0,0,0,0,0,0,0,0,0,0,0,0,0,0,0,0,0,0,0,0,0,0,0,0,0,0,0,0,0,0,0,0,0,0,0,0,0,0,0,0,0,0,0,0,0,0,0,0,0],"sum_hessian":[7.135551E2,2.2978061E2,4.837745E2,4.0384964E1,1.8939565E2,3.678004E2,1.15974075E2,3.7172913E1,3.2120483E0,4.3916527E1,1.4547913E2,2.7566708E2,9.213333E1,5.5003803E1,6.0970272E1,2.162653E1,1.5546384E1,1.1163497E0,2.0956986E0,3.6800705E1,7.1158195E0,1.22896454E2,2.2582666E1,5.9433235E1,2.1623384E2,6.260373E1,2.9529606E1,4.6800056E1,8.203746E0,1.1466415E1,4.9503857E1,2.9957159E0,1.2550668E1,3.427076E1,2.5299454E0,5.874398E0,1.2414211E0,3.5062065E1,8.783439E1,9.423137E0,1.3159531E1,3.8591755E1,2.0841482E1,1.1248131E2,1.0375253E2,5.354477E1,9.058959E0,9.23841E0,2.0291197E1,3.1881145E1,1.4918912E1,1.4773593E0,9.989057E0,1.5453898E1,3.4049957E1],"tree_param":{"num_deleted":"0","num_feature":"5","num_nodes":"55","size_leaf_vector":"1"}},{"base_weights":[5.568978E-4,1.9728976E-1,-2.7973488E-1,4.808769E-1,9.481587E-2,6.340506E-2,-3.7153003E-1,6.301154E-1,1.3956441E-1,3.8082257E-1,-6.913623E-3,-9.089625E-2,4.67432E-1,-5.9685E-1,-2.3826815E-1,4.9870503E-1,9.137514E-1,-8.647953E-2,8.9926267E-1,2.2169891E-1,9.1206765E-1,-2.8968114E-1,9.3051575E-2,4.918385E-2,-9.492439E-1,-5.8733696E-1,6.7469794E-1,-1.0822308E0,-5.0656354E-1,-4.8520276E-1,-1.096738E-1,5.4644942E-2,-3.8306396E-2,3.5841495E-2,9.40971E-2,6.1560858E-2,-2.3330366E-2,1.2293822E-2,9.9931896E-2,2.8873708E-3,5.7380985E-2,1.1603638E-2,1.070583E-1,-5.7629496E-2,-3.3712965E-3,-3.1878293E-2,1.6353102E-2,1.0648751E-2,-1.0626342E-1,-1.0203796E-2,-1.2192307E-1,-7.0127705E-3,-8.191196E-2,9.6198685E-2,-5.0115164E-2,-1.1617886E-1,-9.375657E-3,-9.223913E-2,-3.9961353E-2,-1.4400192E-2,-7.0671804E-2,-2.770061E-3,-6.421433E-2],"categories":[],"categories_nodes":[],"categories_segments":[],"categories_sizes":[],"default_left":[0,0,0,0,0,0,0,0,0,0,0,0,0,0,0,0,0,0,0,0,0,0,0,0,0,0,0,0,0,0,0,0,0,0,0,0,0,0,0,0,0,0,0,0,0,0,0,0,0,0,0,0,0,0,0,0,0,0,0,0,0,0,0],"id":18,"left_children":[1,3,5,7,9,11,13,15,17,19,21,23,25,27,29,31,33,35,37,39,41,43,45,47,49,51,53,55,57,59,61,-1,-1,-1,-1,-1,-1,-1,-1,-1,-1,-1,-1,-1,-1,-1,-1,-1,-1,-1,-1,-1,-1,-1,-1,-1,-1,-1,-1,-1,-1,-1,-1],"loss_changes":[3.884363E1,1.1982588E1,9.174395E0,5.495716E0,8.885018E0,3.91822E0,6.7442875E0,2.3764935E0,6.0252075E0,6.5702085E0,6.4201035E0,5.5565643E0,4.187983E0,3.1578789E0,4.5758734E0,2.488124E0,8.245468E-3,2.9891214E0,5.008583E-1,4.2588587E0,2.1653204E0,4.3322477E0,4.9242554E0,2.683679E0,1.3574567E0,3.4811676E-1,5.536044E0,8.649368E-1,2.886156E0,3.6491299E0,4.2226543E0,0E0,0E0,0E0,0E0,0E0,0E0,0E0,0E0,0E0,0E0,0E0,0E0,0E0,0E0,0E0,0E0,0E0,0E0,0E0,0E0,0E0,0E0,0E0,0E0,0E0,0E0,0E0,0E0,0E0,0E0,0E0,0E0],"parents":[2147483647,0,0,1,1,2,2,3,3,4,4,5,5,6,6,7,7,8,8,9,9,10,10,11,11,12,12,13,13,14,14,15,15,16,16,17,17,18,18,19,19,20,20,21,21,22,22,23,23,24,24,25,25,26,26,27,27,28,28,29,29,30,30],"right_children":[2,4,6,8,10,12,14,16,18,20,22,24,26,28,30,32,34,36,38,40,42,44,46,48,50,52,54,56,58,60,62,-1,-1,-1,-1,-1,-1,-1,-1,-1,-1,-1,-1,-1,-1,-1,-1,-1,-1,-1,-1,-1,-1,-1,-1,-1,-1,-1,-1,-1,-1,-1,-1],"split_conditions":[1.2810497E1,4.8949347E0,6.859171E1,2.3160994E2,1.0328311E2,5.278361E1,4.067232E0,1.01E2,4.578758E0,1.05E2,3.6E1,4.7159554E1,2.7E1,2.4E1,5.6E1,9.6E1,3.6165087E0,1.2688228E0,2.4160643E2,4.418119E0,3.7188036E0,4.1969404E0,3.691131E0,4.9423685E0,1.5427502E1,1.5811196E1,1.21E2,2.7440588E2,1E0,1.5298932E2,1.8961746E1,5.4644942E-2,-3.8306396E-2,3.5841495E-2,9.40971E-2,6.1560858E-2,-2.3330366E-2,1.2293822E-2,9.9931896E-2,2.8873708E-3,5.7380985E-2,1.1603638E-2,1.070583E-1,-5.7629496E-2,-3.3712965E-3,-3.1878293E-2,1.6353102E-2,1.0648751E-2,-1.0626342E-1,-1.0203796E-2,-1.2192307E-1,-7.0127705E-3,-8.191196E-2,9.6198685E-2,-5.0115164E-2,-1.1617886E-1,-9.375657E-3,-9.223913E-2,-3.9961353E-2,-1.4400192E-2,-7.0671804E-2,-2.770061E-3,-6.421433E-2],"split_indices":[0,0,1,1,1,1,2,3,2,3,3,1,3,3,3,3,2,0,1,2,2,2,2,2,0,0,3,1,4,1,0,0,0,0,0,0,0,0,0,0,0,0,0,0,0,0,0,0,0,0,0,0,0,0,0,0,0,0,0,0,0,0,0],"split_type":[0,0,0,0,0,0,0,0,0,0,0,0,0,0,0,0,0,0,0,0,0,0,0,0,0,0,0,0,0,0,0,0,0,0,0,0,0,0,0,0,0,0,0,0,0,0,0,0,0,0,0,0,0,0,0,0,0,0,0,0,0,0,0],"sum_hessian":[7.024206E2,4.129047E2,2.8951587E2,1.08618965E2,3.0428574E2,6.116899E1,2.2834688E2,7.498549E1,3.3633476E1,7.9114975E1,2.2517076E2,4.4824978E1,1.6344015E1,8.356905E1,1.4477783E2,5.3128822E1,2.1856663E1,2.6603825E1,7.0296526E0,6.197034E1,1.7144636E1,5.831621E1,1.6685454E2,3.934644E1,5.478537E0,2.3830454E0,1.3960969E1,1.1383674E1,7.218538E1,4.862742E1,9.615041E1,5.0760612E1,2.3682113E0,1.6832099E0,2.0173452E1,4.0490627E0,2.2554762E1,1.0570241E0,5.972628E0,4.074132E1,2.1229015E1,3.134723E0,1.4009913E1,2.6920849E1,3.1395363E1,2.3867262E1,1.4298727E2,3.8277805E1,1.0686349E0,1.656972E0,3.821565E0,1.1405449E0,1.2425007E0,1.1365884E1,2.5950854E0,1.0373429E1,1.0102443E0,1.3207881E1,5.8977497E1,1.9791918E1,2.8835499E1,8.42346E1,1.1915817E1],"tree_param":{"num_deleted":"0","num_feature":"5","num_nodes":"63","size_leaf_vector":"1"}},{"base_weights":[2.327685E-4,2.3139139E-1,-2.0713799E-1,4.4752976E-1,1.1252974E-1,-1.05124034E-1,-5.243007E-1,7.4331194E-1,2.9077175E-1,5.41756E-2,5.0209063E-1,-4.396772E-1,-1.9593345E-2,-7.6189077E-1,-2.823966E-1,9.061678E-2,8.397616E-1,-1.1078917E-1,4.6716106E-1,7.571265E-2,-1.1961514E-1,6.7775625E-1,-4.4699654E-1,-5.293312E-1,2.1618664E-1,2.2566332E-1,-1.3302338E-1,-2.801557E-1,-8.369805E-1,-1.5856008E-1,-1.0303437E-1,5.324427E-2,-7.2799526E-2,1.3081165E-2,9.065618E-2,1.01834E-1,-2.8459776E-2,3.5506155E-2,1.022547E-1,6.35291E-2,4.0691243E-3,2.7710631E-2,9.7508736E-2,1.640024E-2,-7.565809E-2,-3.4409914E-2,-6.9004305E-2,7.596366E-2,-6.9501415E-2,-1.2978974E-2,3.6630783E-2,-2.5489947E-2,7.207217E-3,-8.855184E-2,1.3706723E-2,-6.5354663E-3,-9.001913E-2,-2.462951E-2,9.578807E-2],"categories":[],"categories_nodes":[],"categories_segments":[],"categories_sizes":[],"default_left":[0,0,0,0,0,0,0,0,0,0,0,0,0,0,0,0,0,0,0,0,0,0,0,0,0,0,0,0,0,0,0,0,0,0,0,0,0,0,0,0,0,0,0,0,0,0,0,0,0,0,0,0,0,0,0,0,0,0,0],"id":19,"left_children":[1,3,5,7,9,11,13,15,17,19,21,23,25,27,29,31,33,35,37,39,-1,41,43,45,47,49,51,53,55,57,-1,-1,-1,-1,-1,-1,-1,-1,-1,-1,-1,-1,-1,-1,-1,-1,-1,-1,-1,-1,-1,-1,-1,-1,-1,-1,-1,-1,-1],"loss_changes":[3.3294147E1,8.387495E0,1.1790675E1,5.171566E0,4.820345E0,7.9539156E0,4.891451E0,2.4173336E0,5.547579E0,5.1149325E0,4.9145246E0,3.443142E0,6.2242627E0,1.3656826E0,4.061598E0,2.6374269E0,1.5099506E0,5.095802E0,3.005228E0,3.5871673E0,0E0,2.55756E0,1.0552189E0,1.2537479E0,4.250699E0,3.5862005E0,3.8396668E0,2.0077093E0,1.7832832E0,4.1850033E0,0E0,0E0,0E0,0E0,0E0,0E0,0E0,0E0,0E0,0E0,0E0,0E0,0E0,0E0,0E0,0E0,0E0,0E0,0E0,0E0,0E0,0E0,0E0,0E0,0E0,0E0,0E0,0E0,0E0],"parents":[2147483647,0,0,1,1,2,2,3,3,4,4,5,5,6,6,7,7,8,8,9,9,10,10,11,11,12,12,13,13,14,14,15,15,16,16,17,17,18,18,19,19,21,21,22,22,23,23,24,24,25,25,26,26,27,27,28,28,29,29],"right_children":[2,4,6,8,10,12,14,16,18,20,22,24,26,28,30,32,34,36,38,40,-1,42,44,46,48,50,52,54,56,58,-1,-1,-1,-1,-1,-1,-1,-1,-1,-1,-1,-1,-1,-1,-1,-1,-1,-1,-1,-1,-1,-1,-1,-1,-1,-1,-1,-1,-1],"split_conditions":[1.1064339E1,1.3595087E2,2.1639311E2,5.2462354E0,4.767661E0,1E0,4.3075094E0,1.6E1,3.8986197E0,4.7547097E0,9.348896E0,1.33E2,1.3689041E1,3.6362572E0,1.8371538E1,1.1E1,3.6165087E0,2.6854847E1,1.18E2,1.2688228E0,-1.1961514E-1,5.9E1,4.3E1,1.4765996E1,1.5735776E1,3.8296254E0,9.7E1,1.349603E1,1.1822582E1,1.7986925E1,-1.0303437E-1,5.324427E-2,-7.2799526E-2,1.3081165E-2,9.065618E-2,1.01834E-1,-2.8459776E-2,3.5506155E-2,1.022547E-1,6.35291E-2,4.0691243E-3,2.7710631E-2,9.7508736E-2,1.640024E-2,-7.565809E-2,-3.4409914E-2,-6.9004305E-2,7.596366E-2,-6.9501415E-2,-1.2978974E-2,3.6630783E-2,-2.5489947E-2,7.207217E-3,-8.855184E-2,1.3706723E-2,-6.5354663E-3,-9.001913E-2,-2.462951E-2,9.578807E-2],"split_indices":[0,1,1,0,2,4,2,3,2,2,0,3,0,2,0,3,2,1,3,0,0,3,3,0,0,2,3,0,0,0,0,0,0,0,0,0,0,0,0,0,0,0,0,0,0,0,0,0,0,0,0,0,0,0,0,0,0,0,0],"split_type":[0,0,0,0,0,0,0,0,0,0,0,0,0,0,0,0,0,0,0,0,0,0,0,0,0,0,0,0,0,0,0,0,0,0,0,0,0,0,0,0,0,0,0,0,0,0,0,0,0,0,0,0,0,0,0,0,0,0,0],"sum_hessian":[6.92561E2,3.2744186E2,3.651191E2,1.1519882E2,2.1224304E2,2.7726843E2,8.785069E1,3.860825E1,7.6590576E1,1.8558281E2,2.6660242E1,5.560988E1,2.2165854E2,4.323609E1,4.4614597E1,5.2203774E0,3.338787E1,2.34888E1,5.3101772E1,1.8336378E2,2.2190206E0,2.273764E1,3.9226007E0,4.9092106E1,6.517773E0,6.978375E1,1.5187479E2,6.468523E0,3.676757E1,3.931694E1,5.297657E0,3.617499E0,1.6028783E0,3.129784E0,3.025809E1,2.4851713E0,2.100363E1,4.5547695E1,7.5540767E0,9.790433E0,1.7357335E2,1.0508946E1,1.2228695E1,1.4772784E0,2.4453225E0,2.4265472E1,2.4826633E1,4.1869597E0,2.3308134E0,1.9805693E1,4.997806E1,9.511235E1,5.6762444E1,2.1812556E0,4.287267E0,2.9379034E0,3.3829666E1,3.7174957E1,2.141985E0],"tree_param":{"num_deleted":"0","num_feature":"5","num_nodes":"59","size_leaf_vector":"1"}},{"base_weights":[3.5887025E-4,3.006604E-1,-1.3788727E-1,7.459143E-1,2.1068527E-1,-5.5777058E-2,-4.0478018E-1,7.974177E-1,1.0858249E-1,-1.0834661E-1,3.097819E-1,1.922397E-1,-1.4241713E-1,-6.652542E-1,-1.7485984E-1,9.303893E-2,5.7948536E-1,-7.0603736E-2,6.977495E-2,6.7376214E-1,-1.8222149E-1,6.160887E-1,1.9514813E-1,8.5519955E-2,6.1053586E-1,-2.8832257E-1,9.423651E-3,-7.320753E-1,-1.0261483E-1,-7.190427E-1,-4.314903E-2,-2.647251E-3,6.572859E-2,-1.4109763E-2,1.0724657E-1,-1.2388201E-1,-2.3170486E-3,4.441863E-2,8.467708E-2,-4.9376946E-2,2.7394533E-2,-3.6147777E-2,2.2705434E-2,7.786472E-2,-2.1287918E-2,-1.185609E-2,-5.5063915E-2,-2.8357077E-2,8.215613E-3,-5.7851728E-2,-1.0708245E-1,3.1465854E-2,-8.5098736E-2,2.7234512E-3,-8.262896E-2,-4.4957418E-2,1.4226593E-2],"categories":[],"categories_nodes":[],"categories_segments":[],"categories_sizes":[],"default_left":[0,0,0,0,0,0,0,0,0,0,0,0,0,0,0,0,0,0,0,0,0,0,0,0,0,0,0,0,0,0,0,0,0,0,0,0,0,0,0,0,0,0,0,0,0,0,0,0,0,0,0,0,0,0,0,0,0],"id":20,"left_children":[1,3,5,7,9,11,13,15,17,19,21,23,25,27,29,-1,31,-1,-1,33,35,37,39,41,43,45,47,49,51,53,55,-1,-1,-1,-1,-1,-1,-1,-1,-1,-1,-1,-1,-1,-1,-1,-1,-1,-1,-1,-1,-1,-1,-1,-1,-1,-1],"loss_changes":[2.844535E1,8.49584E0,1.0259417E1,1.0923386E0,5.7582626E0,7.7622356E0,6.4848824E0,4.1926193E-1,2.3370786E0,2.6451292E0,4.740115E0,4.12685E0,5.9255266E0,1.8544025E0,4.2625103E0,0E0,7.33232E-1,0E0,0E0,1.4445556E0,6.806902E0,1.1002989E0,5.6825047E0,4.874417E0,2.7773457E0,6.0073395E0,2.835711E0,1.758297E0,2.3322914E0,9.5167303E-1,3.7785935E0,0E0,0E0,0E0,0E0,0E0,0E0,0E0,0E0,0E0,0E0,0E0,0E0,0E0,0E0,0E0,0E0,0E0,0E0,0E0,0E0,0E0,0E0,0E0,0E0,0E0,0E0],"parents":[2147483647,0,0,1,1,2,2,3,3,4,4,5,5,6,6,7,7,8,8,9,9,10,10,11,11,12,12,13,13,14,14,16,16,19,19,20,20,21,21,22,22,23,23,24,24,25,25,26,26,27,27,28,28,29,29,30,30],"right_children":[2,4,6,8,10,12,14,16,18,20,22,24,26,28,30,-1,32,-1,-1,34,36,38,40,42,44,46,48,50,52,54,56,-1,-1,-1,-1,-1,-1,-1,-1,-1,-1,-1,-1,-1,-1,-1,-1,-1,-1,-1,-1,-1,-1,-1,-1,-1,-1],"split_conditions":[8.256972E0,8.226226E1,1.676582E1,4.9117107E0,1E0,9.041018E1,4.2776113E0,5.6714463E0,2.2E1,3.574171E0,3.0592752E0,4.7126904E0,7.6E1,1.39E2,1E0,9.303893E-2,5.9795876E0,-7.0603736E-2,6.977495E-2,3.6788728E0,3.7000988E0,4.348165E0,3.6112387E0,1E0,4.96029E0,1.3199043E1,1E0,2.0139658E2,4.0418644E0,4.407607E0,5.5E1,-2.647251E-3,6.572859E-2,-1.4109763E-2,1.0724657E-1,-1.2388201E-1,-2.3170486E-3,4.441863E-2,8.467708E-2,-4.9376946E-2,2.7394533E-2,-3.6147777E-2,2.2705434E-2,7.786472E-2,-2.1287918E-2,-1.185609E-2,-5.5063915E-2,-2.8357077E-2,8.215613E-3,-5.7851728E-2,-1.0708245E-1,3.1465854E-2,-8.5098736E-2,2.7234512E-3,-8.262896E-2,-4.4957418E-2,1.4226593E-2],"split_indices":[0,1,0,2,4,1,2,0,3,2,0,2,3,3,4,0,0,0,0,0,2,2,2,4,2,0,4,1,2,2,3,0,0,0,0,0,0,0,0,0,0,0,0,0,0,0,0,0,0,0,0,0,0,0,0,0,0],"split_type":[0,0,0,0,0,0,0,0,0,0,0,0,0,0,0,0,0,0,0,0,0,0,0,0,0,0,0,0,0,0,0,0,0,0,0,0,0,0,0,0,0,0,0,0,0,0,0,0,0,0,0,0,0,0,0,0,0],"sum_hessian":[6.831752E2,2.1499126E2,4.681839E2,3.4915756E1,1.800755E2,3.589585E2,1.0922542E2,3.2072746E1,2.8430102E0,4.2655846E1,1.3741965E2,9.2616035E1,2.6634244E2,5.032238E1,5.8903034E1,1.7888748E1,1.4184E1,1.1099529E0,1.7330571E0,2.9805567E0,3.967529E1,3.6231907E1,1.01187744E2,7.474964E1,1.78664E1,1.3536751E2,1.3097495E2,4.4711174E1,5.611207E0,1.060941E1,4.829362E1,1.6889752E0,1.2495025E1,1.1915032E0,1.7890536E0,4.3027406E0,3.5372547E1,2.2437326E1,1.37945795E1,9.845243E0,9.134251E1,1.7602608E1,5.714703E1,1.4882339E1,2.984062E0,8.3063705E1,5.2303802E1,2.5470629E1,1.0550431E2,3.2628292E1,1.2082884E1,3.9746096E0,1.6365975E0,1.4268351E0,9.182575E0,1.468336E1,3.3610264E1],"tree_param":{"num_deleted":"0","num_feature":"5","num_nodes":"57","size_leaf_vector":"1"}},{"base_weights":[2.0130655E-4,2.7832E-1,-1.2635605E-1,7.1704924E-1,1.9327393E-1,-2.5821641E-2,-3.252437E-1,7.688854E-1,1.0029842E-1,1.2315499E-1,6.302863E-1,1.277928E-1,-1.681579E-1,-2.5526512E-1,-9.7893417E-1,9.100798E-2,5.4692304E-1,-6.567641E-2,6.7881E-2,6.8931115E-1,7.193477E-2,8.6322856E-1,2.337571E-1,-4.5054916E-1,1.9564842E-1,3.0656626E-2,-2.664378E-1,-3.9503533E-1,1.3898122E-2,-4.9330497E-1,-1.0746671E-1,2.151004E-2,7.314732E-2,8.083977E-2,-2.6828362E-2,-2.3682361E-2,1.7246602E-2,1.5914222E-2,9.108686E-2,4.102234E-2,-6.8141446E-2,-6.631684E-2,8.953234E-2,5.8222347E-4,3.3256978E-2,-4.181576E-2,1.4086126E-2,-4.15548E-2,-2.6326074E-4,-5.1238716E-2,-5.6619947E-3,-5.7896366E-3,1.2700456E-1,-8.5633956E-2,3.0058205E-2],"categories":[],"categories_nodes":[],"categories_segments":[],"categories_sizes":[],"default_left":[0,0,0,0,0,0,0,0,0,0,0,0,0,0,0,0,0,0,0,0,0,0,0,0,0,0,0,0,0,0,0,0,0,0,0,0,0,0,0,0,0,0,0,0,0,0,0,0,0,0,0,0,0,0,0],"id":21,"left_children":[1,3,5,7,9,11,13,15,17,19,21,23,25,27,29,-1,31,-1,-1,33,35,37,39,41,43,45,47,49,51,53,-1,-1,-1,-1,-1,-1,-1,-1,-1,-1,-1,-1,-1,-1,-1,-1,-1,-1,-1,-1,-1,-1,-1,-1,-1],"loss_changes":[2.3796616E1,7.7505207E0,9.282204E0,1.0086441E0,5.3912997E0,6.793518E0,6.882736E0,4.7939682E-1,2.102708E0,4.4463415E0,2.0551338E0,5.956165E0,3.1578126E0,5.3551474E0,1.5443993E-1,0E0,7.384658E-1,0E0,0E0,1.6704144E0,4.4886384E0,3.588705E-1,1.9612582E0,5.173508E0,3.4944882E0,2.7407167E0,4.246161E0,3.6893873E0,4.5438294E0,1.4890031E0,0E0,0E0,0E0,0E0,0E0,0E0,0E0,0E0,0E0,0E0,0E0,0E0,0E0,0E0,0E0,0E0,0E0,0E0,0E0,0E0,0E0,0E0,0E0,0E0,0E0],"parents":[2147483647,0,0,1,1,2,2,3,3,4,4,5,5,6,6,7,7,8,8,9,9,10,10,11,11,12,12,13,13,14,14,16,16,19,19,20,20,21,21,22,22,23,23,24,24,25,25,26,26,27,27,28,28,29,29],"right_children":[2,4,6,8,10,12,14,16,18,20,22,24,26,28,30,-1,32,-1,-1,34,36,38,40,42,44,46,48,50,52,54,-1,-1,-1,-1,-1,-1,-1,-1,-1,-1,-1,-1,-1,-1,-1,-1,-1,-1,-1,-1,-1,-1,-1,-1,-1],"split_conditions":[8.256972E0,8.226226E1,1.9269902E2,4.9117107E0,4.7601156E0,1.3933264E1,1.8371538E1,5.6714463E0,2.2E1,1.2688228E0,5.6714463E0,1.6E1,7.020936E1,4.490004E0,2.1163985E2,9.100798E-2,7.013974E0,-6.567641E-2,6.7881E-2,2.8346756E2,1E0,8.9138836E-1,2.7440588E2,4.784143E0,4.067232E0,3.8562033E0,9.6E1,1.18E2,1.7986925E1,2.0519508E2,-1.0746671E-1,2.151004E-2,7.314732E-2,8.083977E-2,-2.6828362E-2,-2.3682361E-2,1.7246602E-2,1.5914222E-2,9.108686E-2,4.102234E-2,-6.8141446E-2,-6.631684E-2,8.953234E-2,5.8222347E-4,3.3256978E-2,-4.181576E-2,1.4086126E-2,-4.15548E-2,-2.6326074E-4,-5.1238716E-2,-5.6619947E-3,-5.7896366E-3,1.2700456E-1,-8.5633956E-2,3.0058205E-2],"split_indices":[0,1,1,2,2,0,0,0,3,0,0,3,1,2,1,0,0,0,0,1,4,0,1,2,2,2,3,3,0,1,0,0,0,0,0,0,0,0,0,0,0,0,0,0,0,0,0,0,0,0,0,0,0,0,0],"split_type":[0,0,0,0,0,0,0,0,0,0,0,0,0,0,0,0,0,0,0,0,0,0,0,0,0,0,0,0,0,0,0,0,0,0,0,0,0,0,0,0,0,0,0,0,0,0,0,0,0,0,0,0,0,0,0],"sum_hessian":[6.7408014E2,2.1043506E2,4.6364505E2,3.296198E1,1.7747308E2,3.0872137E2,1.5492368E2,3.0178864E1,2.7831178E0,1.540392E2,2.3433887E1,1.485274E2,1.6019397E2,1.4119864E2,1.3725039E1,1.655058E1,1.3628284E1,1.1469325E0,1.6361853E0,1.1746209E1,1.4229298E2,1.4020526E1,9.413362E0,1.50042715E1,1.3352313E2,5.322035E1,1.0697362E2,9.263026E1,4.8568386E1,3.273306E0,1.0451733E1,5.6446676E0,7.983617E0,1.0585588E1,1.1606202E0,3.4617535E1,1.0767545E2,1.1636152E0,1.2856911E1,8.354226E0,1.0591362E0,1.3395349E1,1.6089231E0,5.6388832E1,7.71343E1,9.940945E0,4.3279404E1,6.797628E1,3.899734E1,6.8397934E1,2.4232327E1,4.68449E1,1.7234874E0,2.1921818E0,1.0811242E0],"tree_param":{"num_deleted":"0","num_feature":"5","num_nodes":"55","size_leaf_vector":"1"}},{"base_weights":[5.807292E-4,1.8438733E-1,-1.626063E-1,3.7794393E-1,8.3563045E-2,-7.471578E-2,-4.46699E-1,7.3076004E-1,2.5714213E-1,5.701584E-2,8.099784E-2,-1.6404869E-1,1.6311526E-1,-7.2905594E-1,-2.5543332E-1,9.330608E-2,8.2436436E-1,-1.0188623E-1,4.199267E-1,-1.09693155E-1,1.5301512E-1,-4.4353884E-2,-3.5594338E-1,3.3697626E-1,-4.0415013E-1,-4.471091E-1,-9.734035E-1,-1.4776044E-1,-9.885372E-2,5.7651516E-2,-7.678697E-2,2.1379648E-2,8.853972E-2,9.826766E-2,-2.582492E-2,-3.1877481E-3,5.8050383E-2,-5.6370995E-3,-1.3590114E-1,-1.2872669E-1,1.7483475E-2,-3.7680704E-2,5.407494E-3,-8.658464E-2,-2.78135E-2,1.0673894E-1,2.1117283E-2,4.888795E-3,-8.498417E-2,-7.101461E-2,2.355967E-3,-1.0552235E-1,-1.5182927E-2,-4.9517155E-2,1.8423003E-3],"categories":[],"categories_nodes":[],"categories_segments":[],"categories_sizes":[],"default_left":[0,0,0,0,0,0,0,0,0,0,0,0,0,0,0,0,0,0,0,0,0,0,0,0,0,0,0,0,0,0,0,0,0,0,0,0,0,0,0,0,0,0,0,0,0,0,0,0,0,0,0,0,0,0,0],"id":22,"left_children":[1,3,5,7,9,11,13,15,17,19,-1,21,23,25,27,29,31,33,35,37,39,41,43,45,47,49,51,53,-1,-1,-1,-1,-1,-1,-1,-1,-1,-1,-1,-1,-1,-1,-1,-1,-1,-1,-1,-1,-1,-1,-1,-1,-1,-1,-1],"loss_changes":[2.0012218E1,6.091692E0,8.791173E0,4.380229E0,3.9570165E0,5.786926E0,4.3125954E0,1.5218878E0,4.799335E0,3.239103E0,0E0,4.5225177E0,7.486763E0,1.845253E0,3.8955753E0,2.3395767E0,6.7660046E-1,4.695883E0,4.095213E0,4.8635507E0,4.253513E0,4.0396385E0,2.764885E0,5.0665936E0,3.6636555E0,2.1483676E0,9.747219E-1,2.6545238E0,0E0,0E0,0E0,0E0,0E0,0E0,0E0,0E0,0E0,0E0,0E0,0E0,0E0,0E0,0E0,0E0,0E0,0E0,0E0,0E0,0E0,0E0,0E0,0E0,0E0,0E0,0E0],"parents":[2147483647,0,0,1,1,2,2,3,3,4,4,5,5,6,6,7,7,8,8,9,9,11,11,12,12,13,13,14,14,15,15,16,16,17,17,18,18,19,19,20,20,21,21,22,22,23,23,24,24,25,25,26,26,27,27],"right_children":[2,4,6,8,10,12,14,16,18,20,-1,22,24,26,28,30,32,34,36,38,40,42,44,46,48,50,52,54,-1,-1,-1,-1,-1,-1,-1,-1,-1,-1,-1,-1,-1,-1,-1,-1,-1,-1,-1,-1,-1,-1,-1,-1,-1,-1,-1],"split_conditions":[1.1064339E1,1.3595087E2,2.1639311E2,4.135546E0,4.938115E0,1.1E2,4.174588E0,1.6E1,3.8986197E0,5.3E1,8.099784E-2,1.6142841E1,1.7778822E1,3.844942E0,1.8371538E1,1.1E1,3.6165087E0,2.6854847E1,1E0,5.1E1,1.375019E2,1E0,1.5E1,1.15E2,1.0189739E2,9.9E1,1.4E2,4.9E1,-9.885372E-2,5.7651516E-2,-7.678697E-2,2.1379648E-2,8.853972E-2,9.826766E-2,-2.582492E-2,-3.1877481E-3,5.8050383E-2,-5.6370995E-3,-1.3590114E-1,-1.2872669E-1,1.7483475E-2,-3.7680704E-2,5.407494E-3,-8.658464E-2,-2.78135E-2,1.0673894E-1,2.1117283E-2,4.888795E-3,-8.498417E-2,-7.101461E-2,2.355967E-3,-1.0552235E-1,-1.5182927E-2,-4.9517155E-2,1.8423003E-3],"split_indices":[0,1,1,0,2,3,2,3,2,3,0,0,0,2,0,3,2,1,4,3,1,4,3,3,1,3,3,3,0,0,0,0,0,0,0,0,0,0,0,0,0,0,0,0,0,0,0,0,0,0,0,0,0,0,0],"split_type":[0,0,0,0,0,0,0,0,0,0,0,0,0,0,0,0,0,0,0,0,0,0,0,0,0,0,0,0,0,0,0,0,0,0,0,0,0,0,0,0,0,0,0,0,0,0,0,0,0,0,0,0,0,0,0],"sum_hessian":[6.6518884E2,3.1276938E2,3.5241943E2,1.0618091E2,2.0658849E2,2.7011594E2,8.230349E1,2.5794819E1,8.0386086E1,2.0034526E2,6.2432275E0,1.9658566E2,7.353028E1,3.2101597E1,5.020189E1,3.558426E0,2.2236393E1,2.519392E1,5.5192165E1,7.315836E1,1.271869E2,1.2182694E2,7.475872E1,5.6591526E1,1.6938757E1,1.6217928E1,1.588367E1,4.4820534E1,5.381355E0,2.4911697E0,1.0672562E0,2.4299843E0,1.9806408E1,2.5086772E0,2.2685244E1,1.4682516E1,4.050965E1,7.1166046E1,1.9923173E0,1.0325704E0,1.2615433E2,2.7183556E1,9.464339E1,8.556609E0,6.620211E1,7.215258E0,4.937627E1,8.841662E0,8.097094E0,1.0077329E1,6.1405993E0,1.418646E1,1.6972101E0,1.3861989E1,3.0958544E1],"tree_param":{"num_deleted":"0","num_feature":"5","num_nodes":"55","size_leaf_vector":"1"}},{"base_weights":[-2.2889299E-5,2.417125E-1,-1.0855759E-1,6.695024E-1,1.6433318E-1,-2.7957631E-2,-2.971122E-1,7.235419E-1,6.367593E-2,1.0084517E-1,5.8070487E-1,5.637828E-2,-2.1847643E-1,-1.6572145E-1,-5.906202E-1,8.7624714E-2,5.003458E-1,-7.64193E-2,6.772681E-2,6.474869E-1,5.391072E-2,8.264135E-1,1.868237E-1,-2.245266E-2,2.0849733E-1,-8.167978E-1,-1.568872E-1,-1.9345188E-1,8.1725E-2,-8.243071E-1,-3.492784E-1,6.799101E-2,1.6557422E-2,7.696017E-2,-2.564683E-2,-2.1863943E-2,1.44741E-2,1.3399037E-2,8.7677166E-2,6.34742E-2,-2.1648977E-2,-5.298425E-2,2.5355013E-3,4.561872E-2,3.931569E-3,-9.2271835E-2,-3.216302E-2,-6.712929E-2,-9.911902E-3,-3.0280724E-2,3.8560764E-3,-9.461087E-2,-3.8694296E-2,-9.751757E-2,-2.167669E-2],"categories":[],"categories_nodes":[],"categories_segments":[],"categories_sizes":[],"default_left":[0,0,0,0,0,0,0,0,0,0,0,0,0,0,0,0,0,0,0,0,0,0,0,0,0,0,0,0,0,0,0,0,0,0,0,0,0,0,0,0,0,0,0,0,0,0,0,0,0,0,0,0,0,0,0],"id":23,"left_children":[1,3,5,7,9,11,13,15,17,19,21,23,25,27,29,-1,31,-1,-1,33,35,37,39,41,43,45,47,49,-1,51,53,-1,-1,-1,-1,-1,-1,-1,-1,-1,-1,-1,-1,-1,-1,-1,-1,-1,-1,-1,-1,-1,-1,-1,-1],"loss_changes":[1.729768E1,6.6523676E0,6.906626E0,9.677315E-1,4.549577E0,5.151609E0,5.152647E0,5.272913E-1,2.36278E0,3.8768787E0,2.0573792E0,2.6729043E0,3.4960222E0,2.7595873E0,2.0645456E0,0E0,7.1947527E-1,0E0,0E0,1.518147E0,3.5346825E0,3.6308384E-1,1.9568789E0,3.5903916E0,3.1687386E0,1.7217255E-1,2.620042E0,2.3872077E0,0E0,7.236643E-1,1.6344054E0,0E0,0E0,0E0,0E0,0E0,0E0,0E0,0E0,0E0,0E0,0E0,0E0,0E0,0E0,0E0,0E0,0E0,0E0,0E0,0E0,0E0,0E0,0E0,0E0],"parents":[2147483647,0,0,1,1,2,2,3,3,4,4,5,5,6,6,7,7,8,8,9,9,10,10,11,11,12,12,13,13,14,14,16,16,19,19,20,20,21,21,22,22,23,23,24,24,25,25,26,26,27,27,29,29,30,30],"right_children":[2,4,6,8,10,12,14,16,18,20,22,24,26,28,30,-1,32,-1,-1,34,36,38,40,42,44,46,48,50,-1,52,54,-1,-1,-1,-1,-1,-1,-1,-1,-1,-1,-1,-1,-1,-1,-1,-1,-1,-1,-1,-1,-1,-1,-1,-1],"split_conditions":[8.256972E0,8.226226E1,2.0139658E2,4.9117107E0,4.7601156E0,1.6142841E1,1.5233247E1,5.6714463E0,1.9E1,1.2688228E0,5.6714463E0,4.425326E0,1.5E1,2.968296E2,4.3075094E0,8.7624714E-2,5.7838528E1,-7.64193E-2,6.772681E-2,2.8346756E2,1E0,8.9138836E-1,4.891763E0,1.3E1,9.498114E1,4.6500673E0,3.6786501E0,4.5404525E0,8.1725E-2,1.24E2,1.5914941E1,6.799101E-2,1.6557422E-2,7.696017E-2,-2.564683E-2,-2.1863943E-2,1.44741E-2,1.3399037E-2,8.7677166E-2,6.34742E-2,-2.1648977E-2,-5.298425E-2,2.5355013E-3,4.561872E-2,3.931569E-3,-9.2271835E-2,-3.216302E-2,-6.712929E-2,-9.911902E-3,-3.0280724E-2,3.8560764E-3,-9.461087E-2,-3.8694296E-2,-9.751757E-2,-2.167669E-2],"split_indices":[0,1,1,2,2,0,0,0,3,0,0,2,3,1,2,0,1,0,0,1,4,0,2,3,1,2,2,2,0,3,0,0,0,0,0,0,0,0,0,0,0,0,0,0,0,0,0,0,0,0,0,0,0,0,0],"split_type":[0,0,0,0,0,0,0,0,0,0,0,0,0,0,0,0,0,0,0,0,0,0,0,0,0,0,0,0,0,0,0,0,0,0,0,0,0,0,0,0,0,0,0,0,0,0,0,0,0,0,0,0,0,0,0],"sum_hessian":[6.5729376E2,2.0328886E2,4.540049E2,2.9966648E1,1.733222E2,3.188548E2,1.351501E2,2.7334145E1,2.632503E0,1.514686E2,2.1853607E1,2.2150603E2,9.734878E1,9.443865E1,4.071144E1,1.44927E1,1.2841445E1,1.0161096E0,1.6163934E0,1.0964968E1,1.4050363E2,1.2781928E1,9.071678E0,1.4646007E2,7.504595E1,7.9411154E0,8.940766E1,9.2628716E1,1.8099356E0,1.945653E1,2.1254913E1,7.6872196E0,5.1542253E0,9.790943E0,1.1740245E0,3.4768456E1,1.0573518E2,1.1147585E0,1.166717E1,4.0262847E0,5.0453935E0,1.1743354E1,1.3471672E2,2.9767906E1,4.5278046E1,5.83048E0,2.1106353E0,7.954564E0,8.1453094E1,6.2748234E1,2.9880486E1,1.4308536E1,5.147993E0,2.6026278E0,1.8652287E1],"tree_param":{"num_deleted":"0","num_feature":"5","num_nodes":"55","size_leaf_vector":"1"}},{"base_weights":[-1.4420435E-5,1.0625068E-1,-2.118189E-1,-1.281017E-1,1.7437452E-1,-1.3547027E-1,-5.3325206E-1,-1.7696643E-1,5.8746636E-1,4.8062518E-1,1.0359766E-1,-4.2155573E-1,-6.715499E-2,-3.8796422E-1,-1.017607E-1,-2.319547E-1,3.0037388E-1,9.063925E-2,8.7692395E-2,1.726981E-1,5.966097E-1,2.6352775E-1,-4.9105003E-2,7.830499E-2,-5.569401E-1,-4.8027703E-1,-3.1034952E-2,4.432797E-1,-4.7675565E-1,-7.0977606E-2,-1.4321719E-2,-6.091217E-2,5.364194E-2,-3.51607E-2,4.683481E-2,5.8783073E-2,-7.4802176E-3,4.9011584E-2,9.598431E-2,1.6145078E-2,6.237728E-2,-2.364972E-2,1.094979E-2,7.750222E-2,-3.718814E-2,-1.0552012E-1,-2.9138768E-2,3.9436754E-2,-6.363029E-2,4.110732E-3,-2.9520264E-2,1.3187182E-1,-3.8348403E-2,-9.684807E-2,-1.6659103E-2],"categories":[],"categories_nodes":[],"categories_segments":[],"categories_sizes":[],"default_left":[0,0,0,0,0,0,0,0,0,0,0,0,0,0,0,0,0,0,0,0,0,0,0,0,0,0,0,0,0,0,0,0,0,0,0,0,0,0,0,0,0,0,0,0,0,0,0,0,0,0,0,0,0,0,0],"id":24,"left_children":[1,3,5,7,9,11,13,15,17,19,21,23,25,27,-1,29,31,-1,33,35,37,39,41,43,45,47,49,51,53,-1,-1,-1,-1,-1,-1,-1,-1,-1,-1,-1,-1,-1,-1,-1,-1,-1,-1,-1,-1,-1,-1,-1,-1,-1,-1],"loss_changes":[1.4670593E1,6.951863E0,5.2719545E0,3.5422537E0,7.2486124E0,3.4370296E0,2.522541E0,2.5058973E0,9.592967E-1,2.1446438E0,6.7235193E0,2.3437734E0,2.13864E0,2.6843839E0,0E0,3.4511786E0,2.4785752E0,0E0,7.7434736E-1,1.9577588E0,1.2821598E0,4.840453E0,4.2286882E0,2.8352513E0,3.2476358E0,1.8250289E0,2.5617783E0,3.2212536E0,4.529265E0,0E0,0E0,0E0,0E0,0E0,0E0,0E0,0E0,0E0,0E0,0E0,0E0,0E0,0E0,0E0,0E0,0E0,0E0,0E0,0E0,0E0,0E0,0E0,0E0,0E0,0E0],"parents":[2147483647,0,0,1,1,2,2,3,3,4,4,5,5,6,6,7,7,8,8,9,9,10,10,11,11,12,12,13,13,15,15,16,16,18,18,19,19,20,20,21,21,22,22,23,23,24,24,25,25,26,26,27,27,28,28],"right_children":[2,4,6,8,10,12,14,16,18,20,22,24,26,28,-1,30,32,-1,34,36,38,40,42,44,46,48,50,52,54,-1,-1,-1,-1,-1,-1,-1,-1,-1,-1,-1,-1,-1,-1,-1,-1,-1,-1,-1,-1,-1,-1,-1,-1,-1,-1],"split_conditions":[1.3933264E1,1E0,2.229136E2,1.39E2,4.532949E0,1E0,1.8256811E1,2.7238278E2,1.44E2,3.7E1,1.695555E2,5.7838528E1,1.4291153E1,3.6362572E0,-1.017607E-1,1.8E1,3.691131E0,9.063925E-2,1.46E2,1.939033E0,4.6615977E0,1.12E2,4.1969404E0,3.9518387E0,4.002574E0,4.5110348E1,1.8811836E1,1.5233247E1,4.174588E0,-7.0977606E-2,-1.4321719E-2,-6.091217E-2,5.364194E-2,-3.51607E-2,4.683481E-2,5.8783073E-2,-7.4802176E-3,4.9011584E-2,9.598431E-2,1.6145078E-2,6.237728E-2,-2.364972E-2,1.094979E-2,7.750222E-2,-3.718814E-2,-1.0552012E-1,-2.9138768E-2,3.9436754E-2,-6.363029E-2,4.110732E-3,-2.9520264E-2,1.3187182E-1,-3.8348403E-2,-9.684807E-2,-1.6659103E-2],"split_indices":[0,4,1,3,0,4,0,1,3,3,1,1,0,2,0,3,2,0,3,0,2,3,2,2,2,1,0,0,2,0,0,0,0,0,0,0,0,0,0,0,0,0,0,0,0,0,0,0,0,0,0,0,0,0,0],"split_type":[0,0,0,0,0,0,0,0,0,0,0,0,0,0,0,0,0,0,0,0,0,0,0,0,0,0,0,0,0,0,0,0,0,0,0,0,0,0,0,0,0,0,0,0,0,0,0,0,0,0,0,0,0,0,0],"sum_hessian":[6.4981134E2,4.330452E2,2.1676611E2,9.733235E1,3.3571283E2,1.7630952E2,4.045659E1,9.181517E1,5.5171843E0,6.1934074E1,2.7377878E2,3.2989197E1,1.4332033E2,3.2506794E1,7.9497957E0,8.279185E1,9.023322E0,2.8712912E0,2.6458929E0,1.7626501E1,4.4307575E1,1.333703E2,1.4040846E2,7.1205606E0,2.5868637E1,1.0534583E1,1.3278575E2,2.7518907E0,2.9754902E1,1.1871148E1,7.09207E1,1.5336319E0,7.48969E0,1.2637558E0,1.3821372E0,6.070078E0,1.1556422E1,3.6079105E1,8.228469E0,1.0505164E2,2.8318659E1,6.41376E1,7.627087E1,2.5117571E0,4.6088033E0,7.959835E0,1.7908802E1,1.363506E0,9.171077E0,1.0496497E2,2.7820778E1,1.0475893E0,1.7043014E0,1.0688006E1,1.9066895E1],"tree_param":{"num_deleted":"0","num_feature":"5","num_nodes":"55","size_leaf_vector":"1"}},{"base_weights":[4.816932E-6,2.1286692E-1,-9.433994E-2,6.316199E-1,1.4081469E-1,-3.2359853E-1,-3.692182E-2,6.8662655E-1,4.0327985E-2,8.3086446E-2,5.369806E-1,-3.58528E-1,6.326931E-2,3.1492252E-2,-2.5295472E-1,5.2635795E-1,9.5773645E-2,-7.122675E-2,6.474384E-2,5.980478E-1,4.1481227E-2,7.8845024E-1,1.6345699E-1,-2.0138489E-1,-6.1773896E-1,1.5753148E-1,-7.696559E-2,-4.6220934E-1,1.3700913E-1,6.060071E-2,-4.1936476E-2,6.2528937E-3,8.615153E-2,-1.4289056E-2,1.5636554E-2,1.1249934E-2,8.414535E-2,-3.142167E-2,5.2838434E-2,-2.846537E-2,4.9335103E-2,-1.5181988E-2,-7.571819E-2,1.1406369E-2,9.882144E-2,-2.8879926E-2,1.8949368E-3,-1.1128276E-2,-5.9733342E-2,2.5909264E-2,-8.387726E-2],"categories":[],"categories_nodes":[],"categories_segments":[],"categories_sizes":[],"default_left":[0,0,0,0,0,0,0,0,0,0,0,0,0,0,0,0,0,0,0,0,0,0,0,0,0,0,0,0,0,0,0,0,0,0,0,0,0,0,0,0,0,0,0,0,0,0,0,0,0,0,0],"id":25,"left_children":[1,3,5,7,9,11,13,15,17,19,21,23,-1,25,27,29,-1,-1,-1,31,33,35,37,39,41,43,45,47,49,-1,-1,-1,-1,-1,-1,-1,-1,-1,-1,-1,-1,-1,-1,-1,-1,-1,-1,-1,-1,-1,-1],"loss_changes":[1.2960078E1,5.8908167E0,5.8742323E0,9.092884E-1,3.8519793E0,3.214096E0,5.3098016E0,6.38361E-1,2.066842E0,3.186679E0,1.8893633E0,3.4160595E0,0E0,3.7485943E0,7.1128774E0,1.6661305E0,0E0,0E0,0E0,1.5165575E0,2.9827285E0,3.5604334E-1,1.8929468E0,3.3566952E0,1.984952E0,4.4639254E0,3.0041223E0,2.6103067E0,3.9030719E0,0E0,0E0,0E0,0E0,0E0,0E0,0E0,0E0,0E0,0E0,0E0,0E0,0E0,0E0,0E0,0E0,0E0,0E0,0E0,0E0,0E0,0E0],"parents":[2147483647,0,0,1,1,2,2,3,3,4,4,5,5,6,6,7,7,8,8,9,9,10,10,11,11,13,13,14,14,15,15,19,19,20,20,21,21,22,22,23,23,24,24,25,25,26,26,27,27,28,28],"right_children":[2,4,6,8,10,12,14,16,18,20,22,24,-1,26,28,30,-1,-1,-1,32,34,36,38,40,42,44,46,48,50,-1,-1,-1,-1,-1,-1,-1,-1,-1,-1,-1,-1,-1,-1,-1,-1,-1,-1,-1,-1,-1,-1],"split_conditions":[8.256972E0,8.226226E1,1E0,4.9117107E0,4.7601156E0,4.9504776E0,2.1964943E2,4.451001E0,1.9E1,1.2688228E0,5.6714463E0,1.4765996E1,6.326931E-2,1.3689041E1,4.505995E0,4.4020514E0,9.5773645E-2,-7.122675E-2,6.474384E-2,3.9643297E0,5.3E1,8.9138836E-1,5.9E1,1.34E2,7.020936E1,2.1163985E2,3.9982603E0,3.7756083E0,1.8256811E1,6.060071E-2,-4.1936476E-2,6.2528937E-3,8.615153E-2,-1.4289056E-2,1.5636554E-2,1.1249934E-2,8.414535E-2,-3.142167E-2,5.2838434E-2,-2.846537E-2,4.9335103E-2,-1.5181988E-2,-7.571819E-2,